{"learner":{"attributes":{"scikit_learn":"{\"_estimator_type\": \"classifier\"}"},"feature_names":["id","age","sex","dataset","cp","trestbps","chol","fbs","restecg","thalch","exang","oldpeak","slope","ca","thal","Job","Housing","Saving accounts","Checking account","Credit amount","Duration","Purpose","bmi","children","smoker","region","charges"],"feature_types":["int","int","c","c","c","float","float","c","c","float","c","float","c","float","c","int","c","c","c","int","int","c","float","int","c","c","float"],"gradient_booster":{"model":{"gbtree_model_param":{"num_parallel_tree":"1","num_trees":"2600"},"iteration_indptr":[0,5,10,15,20,25,30,35,40,45,50,55,60,65,70,75,80,85,90,95,100,105,110,115,120,125,130,135,140,145,150,155,160,165,170,175,180,185,190,195,200,205,210,215,220,225,230,235,240,245,250,255,260,265,270,275,280,285,290,295,300,305,310,315,320,325,330,335,340,345,350,355,360,365,370,375,380,385,390,395,400,405,410,415,420,425,430,435,440,445,450,455,460,465,470,475,480,485,490,495,500,505,510,515,520,525,530,535,540,545,550,555,560,565,570,575,580,585,590,595,600,605,610,615,620,625,630,635,640,645,650,655,660,665,670,675,680,685,690,695,700,705,710,715,720,725,730,735,740,745,750,755,760,765,770,775,780,785,790,795,800,805,810,815,820,825,830,835,840,845,850,855,860,865,870,875,880,885,890,895,900,905,910,915,920,925,930,935,940,945,950,955,960,965,970,975,980,985,990,995,1000,1005,1010,1015,1020,1025,1030,1035,1040,1045,1050,1055,1060,1065,1070,1075,1080,1085,1090,1095,1100,1105,1110,1115,1120,1125,1130,1135,1140,1145,1150,1155,1160,1165,1170,1175,1180,1185,1190,1195,1200,1205,1210,1215,1220,1225,1230,1235,1240,1245,1250,1255,1260,1265,1270,1275,1280,1285,1290,1295,1300,1305,1310,1315,1320,1325,1330,1335,1340,1345,1350,1355,1360,1365,1370,1375,1380,1385,1390,1395,1400,1405,1410,1415,1420,1425,1430,1435,1440,1445,1450,1455,1460,1465,1470,1475,1480,1485,1490,1495,1500,1505,1510,1515,1520,1525,1530,1535,1540,1545,1550,1555,1560,1565,1570,1575,1580,1585,1590,1595,1600,1605,1610,1615,1620,1625,1630,1635,1640,1645,1650,1655,1660,1665,1670,1675,1680,1685,1690,1695,1700,1705,1710,1715,1720,1725,1730,1735,1740,1745,1750,1755,1760,1765,1770,1775,1780,1785,1790,1795,1800,1805,1810,1815,1820,1825,1830,1835,1840,1845,1850,1855,1860,1865,1870,1875,1880,1885,1890,1895,1900,1905,1910,1915,1920,1925,1930,1935,1940,1945,1950,1955,1960,1965,1970,1975,1980,1985,1990,1995,2000,2005,2010,2015,2020,2025,2030,2035,2040,2045,2050,2055,2060,2065,2070,2075,2080,2085,2090,2095,2100,2105,2110,2115,2120,2125,2130,2135,2140,2145,2150,2155,2160,2165,2170,2175,2180,2185,2190,2195,2200,2205,2210,2215,2220,2225,2230,2235,2240,2245,2250,2255,2260,2265,2270,2275,2280,2285,2290,2295,2300,2305,2310,2315,2320,2325,2330,2335,2340,2345,2350,2355,2360,2365,2370,2375,2380,2385,2390,2395,2400,2405,2410,2415,2420,2425,2430,2435,2440,2445,2450,2455,2460,2465,2470,2475,2480,2485,2490,2495,2500,2505,2510,2515,2520,2525,2530,2535,2540,2545,2550,2555,2560,2565,2570,2575,2580,2585,2590,2595,2600],"tree_info":[0,1,2,3,4,0,1,2,3,4,0,1,2,3,4,0,1,2,3,4,0,1,2,3,4,0,1,2,3,4,0,1,2,3,4,0,1,2,3,4,0,1,2,3,4,0,1,2,3,4,0,1,2,3,4,0,1,2,3,4,0,1,2,3,4,0,1,2,3,4,0,1,2,3,4,0,1,2,3,4,0,1,2,3,4,0,1,2,3,4,0,1,2,3,4,0,1,2,3,4,0,1,2,3,4,0,1,2,3,4,0,1,2,3,4,0,1,2,3,4,0,1,2,3,4,0,1,2,3,4,0,1,2,3,4,0,1,2,3,4,0,1,2,3,4,0,1,2,3,4,0,1,2,3,4,0,1,2,3,4,0,1,2,3,4,0,1,2,3,4,0,1,2,3,4,0,1,2,3,4,0,1,2,3,4,0,1,2,3,4,0,1,2,3,4,0,1,2,3,4,0,1,2,3,4,0,1,2,3,4,0,1,2,3,4,0,1,2,3,4,0,1,2,3,4,0,1,2,3,4,0,1,2,3,4,0,1,2,3,4,0,1,2,3,4,0,1,2,3,4,0,1,2,3,4,0,1,2,3,4,0,1,2,3,4,0,1,2,3,4,0,1,2,3,4,0,1,2,3,4,0,1,2,3,4,0,1,2,3,4,0,1,2,3,4,0,1,2,3,4,0,1,2,3,4,0,1,2,3,4,0,1,2,3,4,0,1,2,3,4,0,1,2,3,4,0,1,2,3,4,0,1,2,3,4,0,1,2,3,4,0,1,2,3,4,0,1,2,3,4,0,1,2,3,4,0,1,2,3,4,0,1,2,3,4,0,1,2,3,4,0,1,2,3,4,0,1,2,3,4,0,1,2,3,4,0,1,2,3,4,0,1,2,3,4,0,1,2,3,4,0,1,2,3,4,0,1,2,3,4,0,1,2,3,4,0,1,2,3,4,0,1,2,3,4,0,1,2,3,4,0,1,2,3,4,0,1,2,3,4,0,1,2,3,4,0,1,2,3,4,0,1,2,3,4,0,1,2,3,4,0,1,2,3,4,0,1,2,3,4,0,1,2,3,4,0,1,2,3,4,0,1,2,3,4,0,1,2,3,4,0,1,2,3,4,0,1,2,3,4,0,1,2,3,4,0,1,2,3,4,0,1,2,3,4,0,1,2,3,4,0,1,2,3,4,0,1,2,3,4,0,1,2,3,4,0,1,2,3,4,0,1,2,3,4,0,1,2,3,4,0,1,2,3,4,0,1,2,3,4,0,1,2,3,4,0,1,2,3,4,0,1,2,3,4,0,1,2,3,4,0,1,2,3,4,0,1,2,3,4,0,1,2,3,4,0,1,2,3,4,0,1,2,3,4,0,1,2,3,4,0,1,2,3,4,0,1,2,3,4,0,1,2,3,4,0,1,2,3,4,0,1,2,3,4,0,1,2,3,4,0,1,2,3,4,0,1,2,3,4,0,1,2,3,4,0,1,2,3,4,0,1,2,3,4,0,1,2,3,4,0,1,2,3,4,0,1,2,3,4,0,1,2,3,4,0,1,2,3,4,0,1,2,3,4,0,1,2,3,4,0,1,2,3,4,0,1,2,3,4,0,1,2,3,4,0,1,2,3,4,0,1,2,3,4,0,1,2,3,4,0,1,2,3,4,0,1,2,3,4,0,1,2,3,4,0,1,2,3,4,0,1,2,3,4,0,1,2,3,4,0,1,2,3,4,0,1,2,3,4,0,1,2,3,4,0,1,2,3,4,0,1,2,3,4,0,1,2,3,4,0,1,2,3,4,0,1,2,3,4,0,1,2,3,4,0,1,2,3,4,0,1,2,3,4,0,1,2,3,4,0,1,2,3,4,0,1,2,3,4,0,1,2,3,4,0,1,2,3,4,0,1,2,3,4,0,1,2,3,4,0,1,2,3,4,0,1,2,3,4,0,1,2,3,4,0,1,2,3,4,0,1,2,3,4,0,1,2,3,4,0,1,2,3,4,0,1,2,3,4,0,1,2,3,4,0,1,2,3,4,0,1,2,3,4,0,1,2,3,4,0,1,2,3,4,0,1,2,3,4,0,1,2,3,4,0,1,2,3,4,0,1,2,3,4,0,1,2,3,4,0,1,2,3,4,0,1,2,3,4,0,1,2,3,4,0,1,2,3,4,0,1,2,3,4,0,1,2,3,4,0,1,2,3,4,0,1,2,3,4,0,1,2,3,4,0,1,2,3,4,0,1,2,3,4,0,1,2,3,4,0,1,2,3,4,0,1,2,3,4,0,1,2,3,4,0,1,2,3,4,0,1,2,3,4,0,1,2,3,4,0,1,2,3,4,0,1,2,3,4,0,1,2,3,4,0,1,2,3,4,0,1,2,3,4,0,1,2,3,4,0,1,2,3,4,0,1,2,3,4,0,1,2,3,4,0,1,2,3,4,0,1,2,3,4,0,1,2,3,4,0,1,2,3,4,0,1,2,3,4,0,1,2,3,4,0,1,2,3,4,0,1,2,3,4,0,1,2,3,4,0,1,2,3,4,0,1,2,3,4,0,1,2,3,4,0,1,2,3,4,0,1,2,3,4,0,1,2,3,4,0,1,2,3,4,0,1,2,3,4,0,1,2,3,4,0,1,2,3,4,0,1,2,3,4,0,1,2,3,4,0,1,2,3,4,0,1,2,3,4,0,1,2,3,4,0,1,2,3,4,0,1,2,3,4,0,1,2,3,4,0,1,2,3,4,0,1,2,3,4,0,1,2,3,4,0,1,2,3,4,0,1,2,3,4,0,1,2,3,4,0,1,2,3,4,0,1,2,3,4,0,1,2,3,4,0,1,2,3,4,0,1,2,3,4,0,1,2,3,4,0,1,2,3,4,0,1,2,3,4,0,1,2,3,4,0,1,2,3,4,0,1,2,3,4,0,1,2,3,4,0,1,2,3,4,0,1,2,3,4,0,1,2,3,4,0,1,2,3,4,0,1,2,3,4,0,1,2,3,4,0,1,2,3,4,0,1,2,3,4,0,1,2,3,4,0,1,2,3,4,0,1,2,3,4,0,1,2,3,4,0,1,2,3,4,0,1,2,3,4,0,1,2,3,4,0,1,2,3,4,0,1,2,3,4,0,1,2,3,4,0,1,2,3,4,0,1,2,3,4,0,1,2,3,4,0,1,2,3,4,0,1,2,3,4,0,1,2,3,4,0,1,2,3,4,0,1,2,3,4,0,1,2,3,4,0,1,2,3,4,0,1,2,3,4,0,1,2,3,4,0,1,2,3,4,0,1,2,3,4,0,1,2,3,4,0,1,2,3,4,0,1,2,3,4,0,1,2,3,4,0,1,2,3,4,0,1,2,3,4,0,1,2,3,4,0,1,2,3,4,0,1,2,3,4,0,1,2,3,4,0,1,2,3,4,0,1,2,3,4,0,1,2,3,4,0,1,2,3,4,0,1,2,3,4,0,1,2,3,4,0,1,2,3,4,0,1,2,3,4,0,1,2,3,4,0,1,2,3,4,0,1,2,3,4,0,1,2,3,4,0,1,2,3,4,0,1,2,3,4,0,1,2,3,4,0,1,2,3,4,0,1,2,3,4,0,1,2,3,4,0,1,2,3,4,0,1,2,3,4,0,1,2,3,4,0,1,2,3,4,0,1,2,3,4,0,1,2,3,4,0,1,2,3,4,0,1,2,3,4,0,1,2,3,4,0,1,2,3,4,0,1,2,3,4,0,1,2,3,4,0,1,2,3,4,0,1,2,3,4,0,1,2,3,4,0,1,2,3,4,0,1,2,3,4,0,1,2,3,4,0,1,2,3,4,0,1,2,3,4,0,1,2,3,4,0,1,2,3,4,0,1,2,3,4,0,1,2,3,4,0,1,2,3,4,0,1,2,3,4,0,1,2,3,4,0,1,2,3,4,0,1,2,3,4,0,1,2,3,4,0,1,2,3,4,0,1,2,3,4,0,1,2,3,4,0,1,2,3,4,0,1,2,3,4,0,1,2,3,4,0,1,2,3,4,0,1,2,3,4,0,1,2,3,4,0,1,2,3,4,0,1,2,3,4,0,1,2,3,4,0,1,2,3,4,0,1,2,3,4,0,1,2,3,4,0,1,2,3,4,0,1,2,3,4,0,1,2,3,4,0,1,2,3,4,0,1,2,3,4,0,1,2,3,4,0,1,2,3,4,0,1,2,3,4,0,1,2,3,4,0,1,2,3,4,0,1,2,3,4,0,1,2,3,4,0,1,2,3,4,0,1,2,3,4,0,1,2,3,4,0,1,2,3,4,0,1,2,3,4,0,1,2,3,4,0,1,2,3,4,0,1,2,3,4,0,1,2,3,4,0,1,2,3,4,0,1,2,3,4,0,1,2,3,4,0,1,2,3,4,0,1,2,3,4,0,1,2,3,4,0,1,2,3,4,0,1,2,3,4,0,1,2,3,4,0,1,2,3,4,0,1,2,3,4,0,1,2,3,4,0,1,2,3,4,0,1,2,3,4,0,1,2,3,4,0,1,2,3,4,0,1,2,3,4,0,1,2,3,4,0,1,2,3,4,0,1,2,3,4,0,1,2,3,4,0,1,2,3,4,0,1,2,3,4,0,1,2,3,4,0,1,2,3,4,0,1,2,3,4,0,1,2,3,4,0,1,2,3,4,0,1,2,3,4,0,1,2,3,4,0,1,2,3,4,0,1,2,3,4,0,1,2,3,4,0,1,2,3,4,0,1,2,3,4,0,1,2,3,4,0,1,2,3,4,0,1,2,3,4,0,1,2,3,4,0,1,2,3,4,0,1,2,3,4,0,1,2,3,4,0,1,2,3,4,0,1,2,3,4,0,1,2,3,4,0,1,2,3,4,0,1,2,3,4,0,1,2,3,4,0,1,2,3,4,0,1,2,3,4,0,1,2,3,4,0,1,2,3,4,0,1,2,3,4,0,1,2,3,4,0,1,2,3,4,0,1,2,3,4,0,1,2,3,4,0,1,2,3,4,0,1,2,3,4,0,1,2,3,4,0,1,2,3,4,0,1,2,3,4,0,1,2,3,4,0,1,2,3,4,0,1,2,3,4,0,1,2,3,4,0,1,2,3,4,0,1,2,3,4,0,1,2,3,4,0,1,2,3,4,0,1,2,3,4,0,1,2,3,4,0,1,2,3,4,0,1,2,3,4,0,1,2,3,4,0,1,2,3,4,0,1,2,3,4,0,1,2,3,4,0,1,2,3,4,0,1,2,3,4,0,1,2,3,4,0,1,2,3,4,0,1,2,3,4,0,1,2,3,4,0,1,2,3,4,0,1,2,3,4,0,1,2,3,4,0,1,2,3,4,0,1,2,3,4,0,1,2,3,4,0,1,2,3,4,0,1,2,3,4,0,1,2,3,4,0,1,2,3,4,0,1,2,3,4,0,1,2,3,4,0,1,2,3,4,0,1,2,3,4,0,1,2,3,4,0,1,2,3,4,0,1,2,3,4,0,1,2,3,4,0,1,2,3,4,0,1,2,3,4,0,1,2,3,4,0,1,2,3,4,0,1,2,3,4,0,1,2,3,4,0,1,2,3,4,0,1,2,3,4,0,1,2,3,4,0,1,2,3,4,0,1,2,3,4,0,1,2,3,4,0,1,2,3,4,0,1,2,3,4,0,1,2,3,4,0,1,2,3,4,0,1,2,3,4,0,1,2,3,4,0,1,2,3,4,0,1,2,3,4,0,1,2,3,4,0,1,2,3,4,0,1,2,3,4,0,1,2,3,4,0,1,2,3,4,0,1,2,3,4,0,1,2,3,4,0,1,2,3,4,0,1,2,3,4,0,1,2,3,4,0,1,2,3,4,0,1,2,3,4],"trees":[{"base_weights":[7.9824114E-1,1.645469E0,-1.6290726E-1,2.1334465E0,1.8971847E-1,-5.279503E-1,2.2644265E-1,2.3444498E0,8.4010834E-1,1.0534124E0,-3.9603958E-1,-1.9756837E-1,-1.2227074E-1,-2.1571648E-1,6.040268E-1,4.734446E-1,1.0526315E-1,3.134328E-1,-5.181347E-3,3.2718894E-1,-0E0,1.863354E-2,-1.16531156E-1,1.9178082E-1,-9.608541E-2,8.074534E-2,-7.992202E-2,-9.7345136E-2,1.5372907E-1],"categories":[2,0,1,0,0,1,0,0,1],"categories_nodes":[3,4,5,6,8,9,11,13,14],"categories_segments":[0,1,2,3,4,5,6,7,8],"categories_sizes":[1,1,1,1,1,1,1,1,1],"default_left":[0,1,0,1,1,0,0,0,1,1,0,1,0,0,0,0,0,0,0,0,0,0,0,0,0,0,0,0,0],"id":0,"left_children":[1,3,5,7,9,11,13,15,17,19,21,23,-1,25,27,-1,-1,-1,-1,-1,-1,-1,-1,-1,-1,-1,-1,-1,-1],"loss_changes":[1.9286903E2,8.8960266E1,1.5998257E1,2.3715668E1,1.6950518E1,1.4763012E0,9.272607E0,2.0813599E0,9.3341055E0,8.271957E0,1.8984234E0,4.76556E0,0E0,3.1184804E0,5.724948E0,0E0,0E0,0E0,0E0,0E0,0E0,0E0,0E0,0E0,0E0,0E0,0E0,0E0,0E0],"parents":[2147483647,0,0,1,1,2,2,3,3,4,4,5,5,6,6,7,7,8,8,9,9,10,10,11,11,13,13,14,14],"right_children":[2,4,6,8,10,12,14,16,18,20,22,24,-1,26,28,-1,-1,-1,-1,-1,-1,-1,-1,-1,-1,-1,-1,-1,-1],"split_conditions":[4.93E2,1E0,7.07E2,NaN,NaN,NaN,NaN,2.8E0,NaN,NaN,4E-1,NaN,-1.2227074E-1,NaN,NaN,4.734446E-1,1.0526315E-1,3.134328E-1,-5.181347E-3,3.2718894E-1,-0E0,1.863354E-2,-1.16531156E-1,1.9178082E-1,-9.608541E-2,8.074534E-2,-7.992202E-2,-9.7345136E-2,1.5372907E-1],"split_indices":[0,13,0,14,4,12,10,11,4,12,11,4,0,14,14,0,0,0,0,0,0,0,0,0,0,0,0,0,0],"split_type":[0,0,0,1,1,1,1,0,1,1,0,1,0,1,1,0,0,0,0,0,0,0,0,0,0,0,0,0,0],"sum_hessian":[2.3552002E2,1.2480001E2,1.1072001E2,9.312001E1,3.1680002E1,5.6960003E1,5.3760002E1,7.936001E1,1.3760001E1,1.24800005E1,1.92E1,1.2160001E1,4.4800003E1,2.4960001E1,2.8800001E1,7.808E1,1.2800001E0,7.0400004E0,6.7200003E0,7.6800003E0,4.8E0,5.4400005E0,1.3760001E1,1.9200001E0,1.0240001E1,5.4400005E0,1.952E1,3.5200002E0,2.5280003E1],"tree_param":{"num_deleted":"0","num_feature":"27","num_nodes":"29","size_leaf_vector":"1"}},{"base_weights":[2.697446E-1,-3.0041546E-1,9.0245634E-1,-1.09192476E-1,-1.2236287E-1,4.7675964E-1,3.5559824E-1,-1.9023281E-1,5.1502144E-1,6.567284E-1,-8.67052E-2,6.2314536E-2,-6.0731538E-2,-2.919708E-2,2.3140495E-1,1.7934166E-1,1.2987012E-2,2.8070176E-1,-3.7214886E-2],"categories":[1,4,5,2,5,6,7],"categories_nodes":[7,9],"categories_segments":[0,3],"categories_sizes":[3,4],"default_left":[0,0,0,0,0,0,0,1,0,1,0,0,0,0,0,0,0,0,0],"id":1,"left_children":[1,3,5,7,-1,-1,9,11,13,15,17,-1,-1,-1,-1,-1,-1,-1,-1],"loss_changes":[8.5594986E1,7.3860483E0,9.017333E1,4.0821676E0,0E0,0E0,1.1143752E1,4.103861E0,4.1240244E0,6.9915714E0,5.3847737E0,0E0,0E0,0E0,0E0,0E0,0E0,0E0,0E0],"parents":[2147483647,0,0,1,1,2,2,3,3,6,6,7,7,8,8,9,9,10,10],"right_children":[2,4,6,8,-1,-1,10,12,14,16,18,-1,-1,-1,-1,-1,-1,-1,-1],"split_conditions":[4.91E2,6.00001E0,6.02E2,7.409E3,-1.2236287E-1,4.7675964E-1,1.9E0,NaN,1E0,NaN,2.128E1,6.2314536E-2,-6.0731538E-2,-2.919708E-2,2.3140495E-1,1.7934166E-1,1.2987012E-2,2.8070176E-1,-3.7214886E-2],"split_indices":[0,13,0,19,0,0,11,21,13,21,22,0,0,0,0,0,0,0,0],"split_type":[0,0,0,0,0,0,0,1,0,1,0,0,0,0,0,0,0,0,0],"sum_hessian":[2.3552002E2,1.2416001E2,1.1136001E2,7.776E1,4.64E1,2.9120003E1,8.2240005E1,6.944E1,8.320001E0,4.8640003E1,3.3600002E1,1.24800005E1,5.6960003E1,4.4800005E0,3.8400002E0,3.424E1,1.4400001E1,1.2800001E0,3.2320004E1],"tree_param":{"num_deleted":"0","num_feature":"27","num_nodes":"19","size_leaf_vector":"1"}},{"base_weights":[-2.6720783E-1,-4.4594243E-1,6.7275345E-2,-5.79119E-1,6.731946E-2,5.376344E-1,-6.703229E-2,-6.027768E-1,3.649635E-2,6.031128E-1,-1.7094016E-1,6.9682145E-1,-8.6419754E-2,5.0741605E-2,-4.5454544E-1,1.754386E-2,-1.2221841E-1,1.9298245E-1,-9.523809E-2,-3.448276E-2,2.6277372E-1,1.5915118E-2,-1.1158798E-1,2.7027026E-2,2.0883535E-1,4.6242774E-2,-6.1224487E-2,7.692307E-2,-1.1594202E-1],"categories":[0,0,2,0,1,2,3,5,6,7,0,1,2,3],"categories_nodes":[3,5,8,10],"categories_segments":[0,1,3,10],"categories_sizes":[1,2,7,4],"default_left":[0,1,0,1,0,1,0,0,1,0,1,0,0,0,0,0,0,0,0,0,0,0,0,0,0,0,0,0,0],"id":2,"left_children":[1,3,5,7,9,11,13,15,17,19,21,23,-1,25,27,-1,-1,-1,-1,-1,-1,-1,-1,-1,-1,-1,-1,-1,-1],"loss_changes":[1.4170044E1,1.0584719E1,5.294544E0,1.8075485E0,4.2749577E0,3.172359E0,3.018804E0,7.318077E-1,3.0678885E0,5.892967E0,2.3130176E0,3.0508065E0,0E0,3.3708436E0,1.8404784E0,0E0,0E0,0E0,0E0,0E0,0E0,0E0,0E0,0E0,0E0,0E0,0E0,0E0,0E0],"parents":[2147483647,0,0,1,1,2,2,3,3,4,4,5,5,6,6,7,7,8,8,9,9,10,10,11,11,13,13,14,14],"right_children":[2,4,6,8,10,12,14,16,18,20,22,24,-1,26,28,-1,-1,-1,-1,-1,-1,-1,-1,-1,-1,-1,-1,-1,-1],"split_conditions":[6.02E2,1E0,6.64E2,NaN,2.75E1,NaN,3E1,9.3E1,NaN,5.9E1,NaN,1.901E3,-8.6419754E-2,1.56E2,2.21E1,1.754386E-2,-1.2221841E-1,1.9298245E-1,-9.523809E-2,-3.448276E-2,2.6277372E-1,1.5915118E-2,-1.1158798E-1,2.7027026E-2,2.0883535E-1,4.6242774E-2,-6.1224487E-2,7.692307E-2,-1.1594202E-1],"split_indices":[0,13,0,12,22,21,20,9,21,1,21,19,0,5,22,0,0,0,0,0,0,0,0,0,0,0,0,0,0],"split_type":[0,0,0,1,0,1,0,0,1,0,1,0,0,0,0,0,0,0,0,0,0,0,0,0,0,0,0,0,0],"sum_hessian":[2.3552002E2,1.5328001E2,8.2240005E1,1.21600006E2,3.1680002E1,1.76E1,6.464001E1,1.1712001E2,4.4800005E0,9.280001E0,2.2400002E1,1.5360001E1,2.2400002E0,5.024E1,1.4400001E1,1.2800001E0,1.1584001E2,1.2800001E0,3.2000003E0,4.8E0,4.4800005E0,1.4080001E1,8.320001E0,6.4000006E0,8.960001E0,3.3600002E1,1.6640001E1,1.6000001E0,1.2800001E1],"tree_param":{"num_deleted":"0","num_feature":"27","num_nodes":"29","size_leaf_vector":"1"}},{"base_weights":[-2.7989176E-1,-4.523869E-1,8.0020644E-2,-5.7286745E-1,1.1778562E-2,-9.578544E-2,4.261796E-1,-5.9550923E-1,7.751938E-2,-2.1922427E-1,4.9822062E-1,1.8197572E-1,-3.0544487E-1,-1.2875536E-1,6.9042313E-1,-1.22226015E-1,-4.7337275E-2,-9.27835E-2,1.9298245E-1,-8.0684595E-2,3.3492822E-2,1.8918918E-1,-5.7851236E-2,1.9101124E-1,7.7972705E-3,-1.0551559E-1,-5.540166E-3,5.4263562E-2,-1.007752E-1,1.7557251E-1,-8.6419754E-2],"categories":[2,0,1,2,3,4,2,1,2],"categories_nodes":[1,3,5,11,14],"categories_segments":[0,1,2,6,7],"categories_sizes":[1,1,4,1,2],"default_left":[0,1,1,1,0,1,0,1,0,0,0,0,0,0,1,0,0,0,0,0,0,0,0,0,0,0,0,0,0,0,0],"id":3,"left_children":[1,3,5,7,9,11,13,15,17,19,21,23,25,27,29,-1,-1,-1,-1,-1,-1,-1,-1,-1,-1,-1,-1,-1,-1,-1,-1],"loss_changes":[1.4720106E1,8.956654E0,4.75601E0,1.9175301E0,3.9252903E0,3.0954638E0,3.9425426E0,5.443268E-1,2.9268506E0,1.7570751E0,4.2365446E0,2.514082E0,1.8436735E0,1.5354159E0,4.1581945E0,0E0,0E0,0E0,0E0,0E0,0E0,0E0,0E0,0E0,0E0,0E0,0E0,0E0,0E0,0E0,0E0],"parents":[2147483647,0,0,1,1,2,2,3,3,4,4,5,5,6,6,7,7,8,8,9,9,10,10,11,11,12,12,13,13,14,14],"right_children":[2,4,6,8,10,12,14,16,18,20,22,24,26,28,30,-1,-1,-1,-1,-1,-1,-1,-1,-1,-1,-1,-1,-1,-1,-1,-1],"split_conditions":[6.24E2,NaN,1.36E2,NaN,2E0,NaN,5E-1,2E0,2E0,2.65E2,1.4E2,NaN,5.9E1,1.06E2,NaN,-1.22226015E-1,-4.7337275E-2,-9.27835E-2,1.9298245E-1,-8.0684595E-2,3.3492822E-2,1.8918918E-1,-5.7851236E-2,1.9101124E-1,7.7972705E-3,-1.0551559E-1,-5.540166E-3,5.4263562E-2,-1.007752E-1,1.7557251E-1,-8.6419754E-2],"split_indices":[0,14,5,12,11,21,11,13,23,6,9,14,1,9,4,0,0,0,0,0,0,0,0,0,0,0,0,0,0,0,0],"split_type":[0,1,0,1,0,1,0,0,0,0,0,1,0,0,1,0,0,0,0,0,0,0,0,0,0,0,0,0,0,0,0],"sum_hessian":[2.3552002E2,1.5904001E2,7.648E1,1.2608001E2,3.2960003E1,5.1200005E1,2.5280003E1,1.21920006E2,4.1600003E0,2.2720001E1,1.0240001E1,2.2080002E1,2.9120003E1,8.320001E0,1.6960001E1,1.1616001E2,5.76E0,2.88E0,1.2800001E0,1.5360001E1,7.3600006E0,6.4000006E0,3.8400002E0,2.5600002E0,1.952E1,1.5680001E1,1.3440001E1,4.1600003E0,4.1600003E0,1.4720001E1,2.2400002E0],"tree_param":{"num_deleted":"0","num_feature":"27","num_nodes":"31","size_leaf_vector":"1"}},{"base_weights":[-5.208862E-1,-5.704635E-1,-6.568144E-2,-5.836053E-1,-0E0,1.6049384E-1,-1.8987341E-1,-5.881215E-1,-0E0,3.9325842E-1,-8.6419754E-2,-3.420523E-1,1.6049384E-1,-1.369863E-2,-1.18531525E-1,1.9298245E-1,-7.017544E-2,3.539823E-2,-9.290954E-2],"categories":[0],"categories_nodes":[11],"categories_segments":[0],"categories_sizes":[1],"default_left":[1,1,1,1,0,0,0,0,0,0,0,0,0,0,0,0,0,0,0],"id":4,"left_children":[1,3,5,7,9,-1,11,13,-1,15,-1,17,-1,-1,-1,-1,-1,-1,-1],"loss_changes":[5.30027E0,1.5980453E0,2.7787976E0,5.4917145E-1,1.1554999E0,0E0,3.614907E0,4.467697E-1,0E0,1.8529469E0,0E0,1.3461998E0,0E0,0E0,0E0,0E0,0E0,0E0,0E0],"parents":[2147483647,0,0,1,1,2,2,3,3,4,4,6,6,7,7,9,9,11,11],"right_children":[2,4,6,8,10,-1,12,14,-1,16,-1,18,-1,-1,-1,-1,-1,-1,-1],"split_conditions":[2.4E0,3E0,1.15E2,1.9E2,1.64E2,1.6049384E-1,3.86E1,1.8335E1,-0E0,1.6E0,-8.6419754E-2,NaN,1.6049384E-1,-1.369863E-2,-1.18531525E-1,1.9298245E-1,-7.017544E-2,3.539823E-2,-9.290954E-2],"split_indices":[11,13,5,5,0,0,22,22,0,11,0,18,0,0,0,0,0,0,0],"split_type":[0,0,0,0,0,0,0,0,0,0,0,1,0,0,0,0,0,0,0],"sum_hessian":[2.3552002E2,2.1216002E2,2.3360003E1,2.0736002E2,4.8E0,2.2400002E0,2.112E1,2.0576001E2,1.6000001E0,2.5600002E0,2.2400002E0,1.8880001E1,2.2400002E0,1.9200001E0,2.0384001E2,1.2800001E0,1.2800001E0,3.5200002E0,1.5360001E1],"tree_param":{"num_deleted":"0","num_feature":"27","num_nodes":"19","size_leaf_vector":"1"}},{"base_weights":[6.166282E-1,1.1458045E0,-1.4549081E-1,1.410788E0,1.5155484E-1,-5.01878E-1,1.898717E-1,1.5160905E0,6.4743245E-1,8.1343335E-1,-3.794202E-1,-1.7167509E-1,-1.1812842E-1,-1.9811188E-1,4.8606926E-1,3.0515587E-1,9.163339E-2,2.608462E-1,-6.5520452E-3,2.4009489E-1,-2.3907023E-3,1.3711894E-2,-1.1336996E-1,1.6732699E-1,-9.130656E-2,6.9965966E-2,-7.546255E-2,-9.393536E-2,1.2209695E-1],"categories":[2,0,1,0,1,0,0,1],"categories_nodes":[3,4,5,6,9,11,13,14],"categories_segments":[0,1,2,3,4,5,6,7],"categories_sizes":[1,1,1,1,1,1,1,1],"default_left":[0,1,0,1,1,0,0,0,0,1,0,1,0,0,0,0,0,0,0,0,0,0,0,0,0,0,0,0,0],"id":5,"left_children":[1,3,5,7,9,11,13,15,17,19,21,23,-1,25,27,-1,-1,-1,-1,-1,-1,-1,-1,-1,-1,-1,-1,-1,-1],"loss_changes":[1.0593191E2,4.0594376E1,1.3046251E1,8.839523E0,1.2157449E1,1.446392E0,6.5952134E0,3.9382935E-1,7.4392567E0,4.9102516E0,1.6668811E0,4.000332E0,0E0,2.605736E0,4.1344995E0,0E0,0E0,0E0,0E0,0E0,0E0,0E0,0E0,0E0,0E0,0E0,0E0,0E0,0E0],"parents":[2147483647,0,0,1,1,2,2,3,3,4,4,5,5,6,6,7,7,8,8,9,9,10,10,11,11,13,13,14,14],"right_children":[2,4,6,8,10,12,14,16,18,20,22,24,-1,26,28,-1,-1,-1,-1,-1,-1,-1,-1,-1,-1,-1,-1,-1,-1],"split_conditions":[4.93E2,1E0,7.07E2,NaN,NaN,NaN,NaN,2.8E0,7E-1,NaN,4E-1,NaN,-1.1812842E-1,NaN,NaN,3.0515587E-1,9.163339E-2,2.608462E-1,-6.5520452E-3,2.4009489E-1,-2.3907023E-3,1.3711894E-2,-1.1336996E-1,1.6732699E-1,-9.130656E-2,6.9965966E-2,-7.546255E-2,-9.393536E-2,1.2209695E-1],"split_indices":[0,13,0,14,4,12,10,11,11,12,11,4,0,14,14,0,0,0,0,0,0,0,0,0,0,0,0,0,0],"split_type":[0,0,0,1,1,1,1,0,0,1,0,1,0,1,1,0,0,0,0,0,0,0,0,0,0,0,0,0,0],"sum_hessian":[2.6125247E2,1.5389337E2,1.07359085E2,1.2117842E2,3.2714954E1,5.1807316E1,5.555177E1,1.056221E2,1.5556324E1,1.432562E1,1.8389334E1,1.1597729E1,4.0209587E1,2.4192986E1,3.1358782E1,1.0422533E2,1.3967717E0,7.447513E0,8.108811E0,9.4431095E0,4.8825097E0,5.6114626E0,1.2777872E1,2.1280496E0,9.46968E0,5.7275915E0,1.8465393E1,3.2923365E0,2.8066446E1],"tree_param":{"num_deleted":"0","num_feature":"27","num_nodes":"29","size_leaf_vector":"1"}},{"base_weights":[2.2947647E-1,-2.7012852E-1,6.938707E-1,-8.99012E-2,-1.1794173E-1,1.5471051E0,2.960414E-1,5.3739827E-2,-3.910028E-1,1.00357704E-1,3.1352448E-1,5.263391E-1,-7.805994E-2,6.936344E-2,-2.4799561E-2,-9.289243E-2,1.3597417E-1,-1.6236723E-4,1.4176495E-1,2.3850541E-1,-3.4650926E-2],"categories":[0,1,0,2],"categories_nodes":[3,5,7],"categories_segments":[0,1,2],"categories_sizes":[1,1,2],"default_left":[0,0,0,1,0,0,0,1,0,0,0,0,0,0,0,0,0,0,0,0,0],"id":6,"left_children":[1,3,5,7,-1,9,11,13,15,-1,-1,17,19,-1,-1,-1,-1,-1,-1,-1,-1],"loss_changes":[5.661087E1,6.7361526E0,4.241912E1,3.3317964E0,0E0,6.97937E-2,7.5697546E0,2.7884376E0,2.2701676E0,0E0,0E0,5.216174E0,4.3393183E0,0E0,0E0,0E0,0E0,0E0,0E0,0E0,0E0],"parents":[2147483647,0,0,1,1,2,2,3,3,5,5,6,6,7,7,8,8,11,11,12,12],"right_children":[2,4,6,8,-1,10,12,14,16,-1,-1,18,20,-1,-1,-1,-1,-1,-1,-1,-1],"split_conditions":[4.91E2,6.00001E0,6.02E2,NaN,-1.1794173E-1,NaN,1.9E0,NaN,2.85E2,1.00357704E-1,3.1352448E-1,1.05E2,2.128E1,6.936344E-2,-2.4799561E-2,-9.289243E-2,1.3597417E-1,-1.6236723E-4,1.4176495E-1,2.3850541E-1,-3.4650926E-2],"split_indices":[0,13,0,2,0,12,11,17,0,0,0,9,22,0,0,0,0,0,0,0,0],"split_type":[0,0,0,1,0,1,0,1,0,0,0,0,0,0,0,0,0,0,0,0,0],"sum_hessian":[2.4219014E2,1.1687351E2,1.25316635E2,7.5548965E1,4.132455E1,3.8931156E1,8.6385475E1,5.170468E1,2.3844284E1,1.2394714E0,3.7691685E1,5.321763E1,3.3167847E1,1.915994E1,3.254474E1,2.2843548E1,1.0007353E0,1.3941117E1,3.9276512E1,1.508345E0,3.1659502E1],"tree_param":{"num_deleted":"0","num_feature":"27","num_nodes":"21","size_leaf_vector":"1"}},{"base_weights":[-2.4069728E-1,-8.961566E-2,-1.18954085E-1,-4.728583E-1,4.836723E-2,-5.3803784E-1,2.6500604E-1,1.14843704E-1,-3.9066413E-1,1.0436696E-1,-1.17596805E-1,1.8648848E-1,-7.7910826E-2,5.2384377E-2,-3.285129E-2,1.3079445E-2,-9.91193E-2],"categories":[1,0,2,6,7,1,2,3,2],"categories_nodes":[0,4,7,8],"categories_segments":[0,1,5,8],"categories_sizes":[1,4,3,1],"default_left":[1,0,0,0,1,0,0,1,0,0,0,0,0,0,0,0,0],"id":7,"left_children":[1,3,-1,5,7,9,11,13,15,-1,-1,-1,-1,-1,-1,-1,-1],"loss_changes":[1.1965124E1,8.412554E0,0E0,2.1669626E0,3.4758801E0,2.3716764E0,2.148517E0,4.2659135E0,7.8311276E-1,0E0,0E0,0E0,0E0,0E0,0E0,0E0,0E0],"parents":[2147483647,0,0,1,1,3,3,4,4,5,5,6,6,7,7,8,8],"right_children":[2,4,-1,6,8,10,12,14,16,-1,-1,-1,-1,-1,-1,-1,-1],"split_conditions":[NaN,1E0,-1.18954085E-1,2.8E0,NaN,1.12E2,1.45E2,NaN,NaN,1.0436696E-1,-1.17596805E-1,1.8648848E-1,-7.7910826E-2,5.2384377E-2,-3.285129E-2,1.3079445E-2,-9.91193E-2],"split_indices":[3,13,0,11,21,9,9,4,14,0,0,0,0,0,0,0,0],"split_type":[1,0,0,0,1,0,0,1,1,0,0,0,0,0,0,0,0],"sum_hessian":[2.2366887E2,1.5765234E2,6.601653E1,4.1092476E1,1.1655986E2,3.800602E1,3.0864573E0,1.0187304E2,1.4686817E1,1.285225E0,3.6720795E1,1.3179986E0,1.7684585E0,6.6756E1,3.5117046E1,2.8176036E0,1.1869213E1],"tree_param":{"num_deleted":"0","num_feature":"27","num_nodes":"17","size_leaf_vector":"1"}},{"base_weights":[-2.530751E-1,-4.226419E-1,6.855504E-2,-5.4699033E-1,3.393896E-3,1.0189748E0,1.7036779E-2,-5.715609E-1,9.7784996E-2,-1.7616397E-1,4.987542E-1,2.8227937E-1,1.8686758E-2,1.7655483E-1,-2.912931E-1,-1.17679596E-1,-4.2650383E-2,-8.793229E-2,1.7278452E-1,4.381793E-2,-9.023771E-2,1.7317007E-1,-8.81115E-2,5.8028875E-3,1.2489269E-1,4.1529637E-2,-1.05158284E-1],"categories":[2,0,0,2,0,1,2,3,4,7],"categories_nodes":[1,3,6,10,14],"categories_segments":[0,1,2,3,4],"categories_sizes":[1,1,1,1,6],"default_left":[0,1,0,1,1,0,1,1,0,0,1,0,0,0,1,0,0,0,0,0,0,0,0,0,0,0,0],"id":8,"left_children":[1,3,5,7,9,11,13,15,17,19,21,-1,-1,23,25,-1,-1,-1,-1,-1,-1,-1,-1,-1,-1,-1,-1],"loss_changes":[1.2261005E1,7.7894115E0,3.8158495E0,1.8586655E0,3.1302876E0,1.3239789E0,3.7539139E0,5.3670883E-1,2.4514234E0,2.908233E0,3.6093457E0,0E0,0E0,3.3015566E0,3.1563787E0,0E0,0E0,0E0,0E0,0E0,0E0,0E0,0E0,0E0,0E0,0E0,0E0],"parents":[2147483647,0,0,1,1,2,2,3,3,4,4,5,5,6,6,7,7,8,8,9,9,10,10,13,13,14,14],"right_children":[2,4,6,8,10,12,14,16,18,20,22,-1,-1,24,26,-1,-1,-1,-1,-1,-1,-1,-1,-1,-1,-1,-1],"split_conditions":[6.24E2,NaN,8E1,NaN,2E0,1.8963172E4,NaN,2E0,2E0,1.33E2,NaN,2.8227937E-1,1.8686758E-2,6.4E1,NaN,-1.17679596E-1,-4.2650383E-2,-8.793229E-2,1.7278452E-1,4.381793E-2,-9.023771E-2,1.7317007E-1,-8.81115E-2,5.8028875E-3,1.2489269E-1,4.1529637E-2,-1.05158284E-1],"split_indices":[0,14,9,12,13,26,10,13,23,9,25,0,0,1,21,0,0,0,0,0,0,0,0,0,0,0,0],"split_type":[0,1,0,1,0,0,1,0,0,0,1,0,0,0,1,0,0,0,0,0,0,0,0,0,0,0,0],"sum_hessian":[2.2328542E2,1.459991E2,7.728632E1,1.12793724E2,3.3205368E1,3.0083704E0,7.4277954E1,1.0876264E2,4.031087E0,2.4844223E1,8.361145E0,1.74399E0,1.2643805E0,4.9233707E1,2.5044247E1,1.0326788E2,5.4947557E0,2.6195807E0,1.4115064E0,1.0277385E1,1.4566838E1,6.067923E0,2.293222E0,3.7835526E1,1.1398184E1,8.043856E0,1.7000391E1],"tree_param":{"num_deleted":"0","num_feature":"27","num_nodes":"27","size_leaf_vector":"1"}},{"base_weights":[-4.943951E-1,-5.46752E-1,-4.8044518E-2,-5.6070495E-1,4.8877085E-3,-1.4627494E-1,1.8147951E-1,-5.65584E-1,3.5412468E-3,3.9344564E-1,-8.559895E-2,-2.4923201E-1,1.3609128E-1,-8.187219E-2,-1.179282E-1,2.2383928E-1,-7.319147E-2,1.6135147E-2,-9.666588E-2],"categories":[0,1,3],"categories_nodes":[7],"categories_segments":[0],"categories_sizes":[3],"default_left":[1,1,0,1,0,0,0,1,0,0,0,0,0,0,0,0,0,0,0],"id":9,"left_children":[1,3,5,7,9,11,-1,13,-1,15,-1,17,-1,-1,-1,-1,-1,-1,-1],"loss_changes":[5.016403E0,1.488491E0,2.3617508E0,5.413513E-1,1.1361021E0,2.0759802E0,0E0,4.6040344E-1,0E0,2.3677235E0,0E0,1.6336987E0,0E0,0E0,0E0,0E0,0E0,0E0,0E0],"parents":[2147483647,0,0,1,1,2,2,3,3,4,4,5,5,7,7,9,9,11,11],"right_children":[2,4,6,8,10,12,-1,14,-1,16,-1,18,-1,-1,-1,-1,-1,-1,-1],"split_conditions":[2.4E0,3E0,8.44E2,1.9E2,1.1E0,3.89E1,1.8147951E-1,NaN,3.5412468E-3,1.64E2,-8.559895E-2,1.3E1,1.3609128E-1,-8.187219E-2,-1.179282E-1,2.2383928E-1,-7.319147E-2,1.6135147E-2,-9.666588E-2],"split_indices":[11,13,0,5,11,22,0,3,0,0,0,20,0,0,0,0,0,0,0],"split_type":[0,0,0,0,0,0,0,1,0,0,0,0,0,0,0,0,0,0,0],"sum_hessian":[2.1477974E2,1.9202972E2,2.275001E1,1.872764E2,4.7533283E0,2.139705E1,1.3529594E0,1.8573187E2,1.5445251E0,2.5529172E0,2.2004113E0,1.9648638E1,1.7484118E0,2.7188614E1,1.5854326E2,1.063122E0,1.4897952E0,8.427435E0,1.1221203E1],"tree_param":{"num_deleted":"0","num_feature":"27","num_nodes":"19","size_leaf_vector":"1"}},{"base_weights":[5.0568974E-1,8.978242E-1,-1.2606199E-1,1.0861807E0,1.2207502E-1,-4.6396777E-1,1.6326629E-1,1.1617105E0,5.203333E-1,6.542106E-1,-3.6202013E-1,-9.745399E-2,-1.1508014E-1,3.935061E-1,-2.328977E-1,6.62296E-2,2.3380749E-1,1.9331323E-1,-1.9509865E-2,-4.943609E-2,1.7275901E-1,1.10295545E-2,-1.1041974E-1,1.9584392E-1,-8.916728E-2,1.0989924E-1,-4.0076997E-2,-1.0008534E-1,3.3102732E-2],"categories":[2,0,1,0,0,3],"categories_nodes":[3,4,5,8,11],"categories_segments":[0,1,2,3,4],"categories_sizes":[1,1,1,1,2],"default_left":[0,1,0,1,1,0,1,1,1,0,0,1,0,1,0,0,0,0,0,0,0,0,0,0,0,0,0,0,0],"id":10,"left_children":[1,3,5,7,9,11,13,15,17,19,21,23,-1,25,27,-1,-1,-1,-1,-1,-1,-1,-1,-1,-1,-1,-1,-1,-1],"loss_changes":[6.7891304E1,2.4551727E1,1.0405675E1,5.199539E0,9.0292E0,1.9451189E0,5.3510857E0,3.370514E-1,5.003136E0,3.3524027E0,1.4986792E0,5.173233E0,0E0,3.522935E0,2.4087663E0,0E0,0E0,0E0,0E0,0E0,0E0,0E0,0E0,0E0,0E0,0E0,0E0,0E0,0E0],"parents":[2147483647,0,0,1,1,2,2,3,3,4,4,5,5,6,6,7,7,8,8,9,9,10,10,11,11,13,13,14,14],"right_children":[2,4,6,8,10,12,14,16,18,20,22,24,-1,26,28,-1,-1,-1,-1,-1,-1,-1,-1,-1,-1,-1,-1,-1,-1],"split_conditions":[4.91E2,1E0,7.07E2,NaN,NaN,NaN,1.5E0,1E2,NaN,2.651E1,4E-1,NaN,-1.1508014E-1,1.35E2,1.1015175E4,6.62296E-2,2.3380749E-1,1.9331323E-1,-1.9509865E-2,-4.943609E-2,1.7275901E-1,1.10295545E-2,-1.1041974E-1,1.9584392E-1,-8.916728E-2,1.0989924E-1,-4.0076997E-2,-1.0008534E-1,3.3102732E-2],"split_indices":[0,13,0,14,4,12,11,9,4,22,11,4,0,5,26,0,0,0,0,0,0,0,0,0,0,0,0,0,0],"split_type":[0,0,0,1,1,1,0,0,1,0,0,1,0,0,0,0,0,0,0,0,0,0,0,0,0,0,0,0,0],"sum_hessian":[2.725949E2,1.679349E2,1.0466001E2,1.3480363E2,3.3131275E1,4.7998764E1,5.6661247E1,1.17999855E2,1.6803778E1,1.56151285E1,1.7516146E1,1.1627927E1,3.637084E1,3.5839188E1,2.082206E1,1.4358251E0,1.1656403E2,9.429502E0,7.3742757E0,2.911938E0,1.270319E1,5.7050557E0,1.18110895E1,2.3999953E0,9.227931E0,2.844313E1,7.396056E0,1.2303999E1,8.518061E0],"tree_param":{"num_deleted":"0","num_feature":"27","num_nodes":"29","size_leaf_vector":"1"}},{"base_weights":[1.9991904E-1,-2.420062E-1,5.6395096E-1,-7.2937526E-2,-1.14241004E-1,2.3740402E-1,2.4959452E-1,-1.4972958E-1,4.5870924E-1,4.2964008E-1,-6.808467E-2,5.996123E-2,-5.2307405E-2,-8.5997365E-2,1.5531385E-1,1.1779994E-1,-6.194999E-4,2.063775E-1,-3.1757068E-2],"categories":[1,4,5,2,5,6,7],"categories_nodes":[7,9],"categories_segments":[0,3],"categories_sizes":[3,4],"default_left":[0,0,0,0,0,0,0,1,0,1,0,0,0,0,0,0,0,0,0],"id":11,"left_children":[1,3,5,7,-1,-1,9,11,13,15,17,-1,-1,-1,-1,-1,-1,-1,-1],"loss_changes":[3.9458878E1,6.141982E0,2.6013618E1,3.1122882E0,0E0,0E0,5.20827E0,3.3903904E0,3.0613232E0,3.9967194E0,3.517815E0,0E0,0E0,0E0,0E0,0E0,0E0,0E0,0E0],"parents":[2147483647,0,0,1,1,2,2,3,3,6,6,7,7,8,8,9,9,10,10],"right_children":[2,4,6,8,-1,-1,10,12,14,16,18,-1,-1,-1,-1,-1,-1,-1,-1],"split_conditions":[4.91E2,6.00001E0,6.02E2,7.409E3,-1.14241004E-1,2.3740402E-1,1.9E0,NaN,2.2E2,NaN,2.128E1,5.996123E-2,-5.2307405E-2,-8.5997365E-2,1.5531385E-1,1.1779994E-1,-6.194999E-4,2.063775E-1,-3.1757068E-2],"split_indices":[0,13,0,19,0,0,11,21,6,21,22,0,0,0,0,0,0,0,0],"split_type":[0,0,0,0,0,0,0,1,0,1,0,0,0,0,0,0,0,0,0],"sum_hessian":[2.4342847E2,1.1010232E2,1.3332614E2,7.355023E1,3.6552086E1,4.3778694E1,8.954745E1,6.489504E1,8.655194E0,5.692986E1,3.261759E1,1.2590783E1,5.2304256E1,2.1872282E0,6.467966E0,4.1343597E1,1.5586263E1,1.69421E0,3.092338E1],"tree_param":{"num_deleted":"0","num_feature":"27","num_nodes":"19","size_leaf_vector":"1"}},{"base_weights":[-2.1666378E-1,-7.817368E-2,-1.152825E-1,-4.460989E-1,4.0803388E-2,-5.151348E-1,2.3881145E-1,9.9641114E-2,-3.7182683E-1,9.743847E-2,-1.1395677E-1,1.6301912E-1,-7.5811334E-2,4.4348005E-2,-2.9388456E-2,-9.555283E-2,1.2624449E-2],"categories":[1,0,2,6,7,1,2,3,0],"categories_nodes":[0,4,7,8],"categories_segments":[0,1,5,8],"categories_sizes":[1,4,3,1],"default_left":[1,0,0,0,1,0,0,1,1,0,0,0,0,0,0,0,0],"id":12,"left_children":[1,3,-1,5,7,9,11,13,15,-1,-1,-1,-1,-1,-1,-1,-1],"loss_changes":[1.059548E1,6.819256E0,0E0,1.9220629E0,2.9095762E0,2.188239E0,1.7927598E0,3.1740084E0,7.2025514E-1,0E0,0E0,0E0,0E0,0E0,0E0,0E0,0E0],"parents":[2147483647,0,0,1,1,3,3,4,4,5,5,6,6,7,7,8,8],"right_children":[2,4,-1,6,8,10,12,14,16,-1,-1,-1,-1,-1,-1,-1,-1],"split_conditions":[NaN,1E0,-1.152825E-1,2.8E0,NaN,1.12E2,1.45E2,NaN,NaN,9.743847E-2,-1.1395677E-1,1.6301912E-1,-7.5811334E-2,4.4348005E-2,-2.9388456E-2,-9.555283E-2,1.2624449E-2],"split_indices":[3,13,0,11,21,9,9,4,8,0,0,0,0,0,0,0,0],"split_type":[1,0,0,0,1,0,0,1,1,0,0,0,0,0,0,0,0],"sum_hessian":[2.1257268E2,1.5436507E2,5.82076E1,3.7048054E1,1.1731702E2,3.388089E1,3.1671643E0,1.0334008E2,1.3976935E1,1.3425229E0,3.2538364E1,1.4735662E0,1.6935983E0,6.918366E1,3.415642E1,1.1160274E1,2.816662E0],"tree_param":{"num_deleted":"0","num_feature":"27","num_nodes":"17","size_leaf_vector":"1"}},{"base_weights":[-2.281668E-1,-3.9580154E-1,6.2501974E-2,-5.251153E-1,1.2235807E-3,-8.713752E-2,3.3335444E-1,-5.515885E-1,1.024627E-1,2.6446897E-1,-2.871905E-1,1.4053604E-1,-2.7661717E-1,-9.56643E-2,4.4916382E-1,6.9681364E-3,-1.1227026E-1,-8.409574E-2,1.5211232E-1,1.0519828E-1,-7.1360834E-2,-9.693099E-2,4.3752916E-2,5.4159965E-2,-9.93863E-2,-2.7581935E-3,-1.0151515E-1,1.1436768E-1,-9.370897E-2],"categories":[2,0,0,1,2,3,4,0,2,0],"categories_nodes":[1,3,4,5,12,14],"categories_segments":[0,1,2,3,7,9],"categories_sizes":[1,1,1,4,2,1],"default_left":[0,1,1,1,1,1,0,0,0,0,1,0,1,0,1,0,0,0,0,0,0,0,0,0,0,0,0,0,0],"id":13,"left_children":[1,3,5,7,9,11,13,15,17,19,21,23,25,-1,27,-1,-1,-1,-1,-1,-1,-1,-1,-1,-1,-1,-1,-1,-1],"loss_changes":[1.0373385E1,6.923231E0,3.2126033E0,1.7463417E0,2.6668415E0,2.2557228E0,2.861858E0,5.7920074E-1,2.0268264E0,3.1709933E0,1.7808259E0,2.1278813E0,1.715924E0,0E0,3.1003623E0,0E0,0E0,0E0,0E0,0E0,0E0,0E0,0E0,0E0,0E0,0E0,0E0,0E0,0E0],"parents":[2147483647,0,0,1,1,2,2,3,3,4,4,5,5,6,6,7,7,8,8,9,9,10,10,11,11,12,12,14,14],"right_children":[2,4,6,8,10,12,14,16,18,20,22,24,26,-1,28,-1,-1,-1,-1,-1,-1,-1,-1,-1,-1,-1,-1,-1,-1],"split_conditions":[6.24E2,NaN,1.36E2,NaN,NaN,NaN,6.64E2,1.957E1,2E0,2.27E2,2E0,8.86E2,NaN,-9.56643E-2,NaN,6.9681364E-3,-1.1227026E-1,-8.409574E-2,1.5211232E-1,1.0519828E-1,-7.1360834E-2,-9.693099E-2,4.3752916E-2,5.4159965E-2,-9.93863E-2,-2.7581935E-3,-1.0151515E-1,1.1436768E-1,-9.370897E-2],"split_indices":[0,14,5,12,10,21,0,22,23,0,13,0,25,0,16,0,0,0,0,0,0,0,0,0,0,0,0,0,0],"split_type":[0,1,0,1,1,1,0,0,0,0,0,0,1,0,1,0,0,0,0,0,0,0,0,0,0,0,0,0,0],"sum_hessian":[2.1138367E2,1.3383597E2,7.754769E1,1.00711075E2,3.3124905E1,5.0387882E1,2.7159811E1,9.675091E1,3.9601645E0,1.7361496E1,1.5763408E1,2.300455E1,2.7383331E1,3.0004234E0,2.4159388E1,1.5422616E0,9.520865E1,2.4078774E0,1.5522871E0,1.2326198E1,5.035298E0,1.1368573E1,4.394834E0,1.9578884E1,3.4256673E0,1.33036995E1,1.4079631E1,2.1643131E1,2.5162563E0],"tree_param":{"num_deleted":"0","num_feature":"27","num_nodes":"29","size_leaf_vector":"1"}},{"base_weights":[-4.7053963E-1,-5.258469E-1,-3.6895163E-2,-5.4076076E-1,1.619209E-2,-1.3109036E-1,1.6012557E-1,-5.460306E-1,5.0352565E-3,1.288395E-1,-2.6621866E-1,-2.3081623E-1,1.2079046E-1,5.142345E-4,-1.1030125E-1,3.4995347E-2,-8.764194E-2,1.4690423E-2,-9.265809E-2],"categories":[0,1,2],"categories_nodes":[10],"categories_segments":[0],"categories_sizes":[3],"default_left":[1,1,0,1,0,0,0,0,0,0,1,0,0,0,0,0,0,0,0],"id":14,"left_children":[1,3,5,7,9,11,-1,13,-1,-1,15,17,-1,-1,-1,-1,-1,-1,-1],"loss_changes":[4.6947517E0,1.4173546E0,1.9437977E0,5.195923E-1,1.1712261E0,1.738251E0,0E0,5.063591E-1,0E0,0E0,4.2542073E-1,1.4437232E0,0E0,0E0,0E0,0E0,0E0,0E0,0E0],"parents":[2147483647,0,0,1,1,2,2,3,3,4,4,5,5,7,7,10,10,11,11],"right_children":[2,4,6,8,10,12,-1,14,-1,-1,16,18,-1,-1,-1,-1,-1,-1,-1],"split_conditions":[2.4E0,3E0,8.44E2,1.9E2,5.615369E3,3.89E1,1.6012557E-1,1.8335E1,5.0352565E-3,1.288395E-1,NaN,1.3E1,1.2079046E-1,5.142345E-4,-1.1030125E-1,3.4995347E-2,-8.764194E-2,1.4690423E-2,-9.265809E-2],"split_indices":[11,13,0,5,26,22,0,22,0,0,25,20,0,0,0,0,0,0,0],"split_type":[0,0,0,0,0,0,0,0,0,0,1,0,0,0,0,0,0,0,0],"sum_hessian":[1.9555664E2,1.7324788E2,2.2308758E1,1.6861102E2,4.636864E0,2.0811583E1,1.4971752E0,1.670903E2,1.5207107E0,1.0409675E0,3.5958967E0,1.8929354E1,1.8822305E0,1.6565119E0,1.6543379E2,1.0037342E0,2.5921624E0,8.494964E0,1.043439E1],"tree_param":{"num_deleted":"0","num_feature":"27","num_nodes":"19","size_leaf_vector":"1"}},{"base_weights":[4.2833367E-1,7.40597E-1,-1.1659815E-1,8.920547E-1,9.338017E-2,-4.5953217E-1,1.419235E-1,9.5382863E-1,4.298664E-1,5.299112E-1,-3.465531E-1,-1.4237173E-1,-1.1178273E-1,4.7464022E-1,-8.685699E-2,1.9846345E-1,1.4689654E-1,1.7520033E-1,-1.7342951E-2,1.6063753E-1,-1.6250854E-2,7.8033395E-2,-8.85675E-2,1.2706709E-1,-8.389165E-2,-6.344547E-2,1.2894027E-1,1.3103497E-1,-4.0505867E-2],"categories":[2,0,1,0,1,0,1],"categories_nodes":[3,4,5,6,9,11,13],"categories_segments":[0,1,2,3,4,5,6],"categories_sizes":[1,1,1,1,1,1,1],"default_left":[0,1,0,1,1,0,1,0,0,1,0,1,0,0,0,0,0,0,0,0,0,0,0,0,0,0,0,0,0],"id":15,"left_children":[1,3,5,7,9,11,13,15,17,19,21,23,-1,25,27,-1,-1,-1,-1,-1,-1,-1,-1,-1,-1,-1,-1,-1,-1],"loss_changes":[4.6965084E1,1.7097885E1,9.039183E0,3.6418915E0,6.7812996E0,1.2992325E0,4.4925475E0,3.210907E-1,4.351578E0,3.0113597E0,1.4294124E0,2.8046842E0,0E0,3.4340115E0,3.1794763E0,0E0,0E0,0E0,0E0,0E0,0E0,0E0,0E0,0E0,0E0,0E0,0E0,0E0,0E0],"parents":[2147483647,0,0,1,1,2,2,3,3,4,4,5,5,6,6,7,7,8,8,9,9,10,10,11,11,13,13,14,14],"right_children":[2,4,6,8,10,12,14,16,18,20,22,24,-1,26,28,-1,-1,-1,-1,-1,-1,-1,-1,-1,-1,-1,-1,-1,-1],"split_conditions":[4.93E2,1E0,7.07E2,NaN,NaN,NaN,NaN,5.8E1,7E-1,NaN,1.1E2,NaN,-1.1178273E-1,NaN,5.2E1,1.9846345E-1,1.4689654E-1,1.7520033E-1,-1.7342951E-2,1.6063753E-1,-1.6250854E-2,7.8033395E-2,-8.85675E-2,1.2706709E-1,-8.389165E-2,-6.344547E-2,1.2894027E-1,1.3103497E-1,-4.0505867E-2],"split_indices":[0,13,0,14,4,12,4,1,11,12,5,4,0,12,1,0,0,0,0,0,0,0,0,0,0,0,0,0,0],"split_type":[0,0,0,1,1,1,1,0,0,1,0,1,0,1,0,0,0,0,0,0,0,0,0,0,0,0,0,0,0],"sum_hessian":[2.7449435E2,1.7427193E2,1.0022244E2,1.409171E2,3.3354828E1,4.2744064E1,5.747838E1,1.2336497E2,1.7552124E1,1.6639492E1,1.6715338E1,1.077856E1,3.1965506E1,2.2981543E1,3.4496834E1,1.0195156E2,2.1413406E1,9.044903E0,8.50722E0,1.1281081E1,5.35841E0,1.5792761E0,1.5136062E1,2.4918091E0,8.28675E0,3.9099572E0,1.9071585E1,4.02333E0,3.0473505E1],"tree_param":{"num_deleted":"0","num_feature":"27","num_nodes":"29","size_leaf_vector":"1"}},{"base_weights":[1.7732455E-1,-2.1418105E-1,4.7204098E-1,-5.5432897E-2,-1.11053884E-1,9.802993E-1,2.1310906E-1,6.8531394E-2,-3.443069E-1,1.9928159E-1,8.055101E-2,1.5843903E-1,1.016638E0,6.143682E-2,-1.7855775E-2,-8.464887E-2,1.2283152E-1,5.7162624E-2,-3.841209E-2,2.6084146E-1,9.561638E-3],"categories":[0,2,0,2,5,7],"categories_nodes":[3,6,7,11],"categories_segments":[0,1,2,4],"categories_sizes":[1,1,2,2],"default_left":[0,0,0,1,0,0,1,1,0,0,0,1,0,0,0,0,0,0,0,0,0],"id":16,"left_children":[1,3,5,7,-1,9,11,13,15,-1,-1,17,19,-1,-1,-1,-1,-1,-1,-1,-1],"loss_changes":[2.7985188E1,5.626377E0,1.7977182E1,2.6164699E0,0E0,3.0014038E-2,3.9166837E0,1.9669584E0,1.9174466E0,0E0,0E0,3.987966E0,1.5336995E0,0E0,0E0,0E0,0E0,0E0,0E0,0E0,0E0],"parents":[2147483647,0,0,1,1,2,2,3,3,5,5,6,6,7,7,8,8,11,11,12,12],"right_children":[2,4,6,8,-1,10,12,14,16,-1,-1,18,20,-1,-1,-1,-1,-1,-1,-1,-1],"split_conditions":[4.91E2,6.00001E0,6.02E2,NaN,-1.11053884E-1,6E1,NaN,NaN,2.85E2,1.9928159E-1,8.055101E-2,NaN,1.31E2,6.143682E-2,-1.7855775E-2,-8.464887E-2,1.2283152E-1,5.7162624E-2,-3.841209E-2,2.6084146E-1,9.561638E-3],"split_indices":[0,13,0,2,0,1,18,17,0,0,0,21,9,0,0,0,0,0,0,0,0],"split_type":[0,0,0,1,0,0,1,1,0,0,0,1,0,0,0,0,0,0,0,0,0],"sum_hessian":[2.4066516E2,1.0347746E2,1.371877E2,7.14063E1,3.2071156E1,4.536151E1,9.1826195E1,5.0498627E1,2.0907675E1,4.3425068E1,1.9364438E0,8.709748E1,4.7287087E0,1.972398E1,3.0774649E1,1.9832703E1,1.0749729E0,6.401758E1,2.3079906E1,3.3794494E0,1.3492595E0],"tree_param":{"num_deleted":"0","num_feature":"27","num_nodes":"21","size_leaf_vector":"1"}},{"base_weights":[-1.9441548E-1,-6.795895E-2,-1.1216935E-1,-4.200297E-1,3.375174E-2,-4.9445444E-1,2.4288216E-1,8.500651E-2,-4.1582215E-1,8.677293E-2,-1.1081902E-1,1.4869933E-1,-7.1672626E-2,3.5614375E-2,-4.2681474E-2,-1.1389402E-1,6.0503658E-2],"categories":[1],"categories_nodes":[0],"categories_segments":[0],"categories_sizes":[1],"default_left":[1,0,0,0,0,0,0,0,1,0,0,0,0,0,0,0,0],"id":17,"left_children":[1,3,-1,5,7,9,11,13,15,-1,-1,-1,-1,-1,-1,-1,-1],"loss_changes":[9.362911E0,5.4560266E0,0E0,1.8042803E0,2.7735445E0,1.9578485E0,1.5053934E0,3.0234916E0,1.5332527E0,0E0,0E0,0E0,0E0,0E0,0E0,0E0,0E0],"parents":[2147483647,0,0,1,1,3,3,4,4,5,5,6,6,7,7,8,8],"right_children":[2,4,-1,6,8,10,12,14,16,-1,-1,-1,-1,-1,-1,-1,-1],"split_conditions":[NaN,1E0,-1.1216935E-1,2.8E0,3.89E1,1.12E2,1.45E2,1.57E2,1.61E2,8.677293E-2,-1.1081902E-1,1.4869933E-1,-7.1672626E-2,3.5614375E-2,-4.2681474E-2,-1.1389402E-1,6.0503658E-2],"split_indices":[3,13,0,11,22,9,9,9,9,0,0,0,0,0,0,0,0],"split_type":[1,0,0,0,0,0,0,0,0,0,0,0,0,0,0,0,0],"sum_hessian":[2.0188103E2,1.5096724E2,5.0913788E1,3.3136356E1,1.1783088E2,3.0020132E1,3.1162262E0,1.0650001E2,1.1330875E1,1.4334546E0,2.8586678E1,1.5713115E0,1.5449147E0,8.148943E1,2.5010572E1,9.5050535E0,1.8258218E0],"tree_param":{"num_deleted":"0","num_feature":"27","num_nodes":"17","size_leaf_vector":"1"}},{"base_weights":[-2.0596823E-1,-7.976547E-2,-1.1247758E-1,9.057922E-2,-3.7341776E-1,-4.721664E-2,4.2407185E-1,-4.5706645E-1,1.18268475E-1,-2.474322E-2,1.0478099E-1,1.0306891E-1,-8.739835E-2,-2.5070978E-2,-1.0470984E-1,1.3571493E-1,-6.4754546E-2],"categories":[1,0,2],"categories_nodes":[0,8],"categories_segments":[0,1],"categories_sizes":[1,2],"default_left":[1,1,0,1,1,1,0,1,1,0,0,0,0,0,0,0,0],"id":18,"left_children":[1,3,-1,5,7,9,11,13,15,-1,-1,-1,-1,-1,-1,-1,-1],"loss_changes":[9.01433E0,7.5321493E0,0E0,4.4165688E0,2.3254938E0,3.0619748E0,2.4315162E0,9.797592E-1,2.405218E0,0E0,0E0,0E0,0E0,0E0,0E0,0E0,0E0],"parents":[2147483647,0,0,1,1,3,3,4,4,5,5,6,6,7,7,8,8],"right_children":[2,4,-1,6,8,10,12,14,16,-1,-1,-1,-1,-1,-1,-1,-1],"split_conditions":[NaN,1.42E2,-1.1247758E-1,2E0,2E0,2.89E2,2.99E2,1.26E2,NaN,-2.474322E-2,1.0478099E-1,1.0306891E-1,-8.739835E-2,-2.5070978E-2,-1.0470984E-1,1.3571493E-1,-6.4754546E-2],"split_indices":[3,9,0,11,13,6,6,6,25,0,0,0,0,0,0,0,0],"split_type":[1,0,0,0,0,0,0,0,1,0,0,0,0,0,0,0,0],"sum_hessian":[2.0039972E2,1.4890022E2,5.14995E1,9.467295E1,5.422727E1,6.75998E1,2.7073153E1,4.640327E1,7.823998E0,6.03055E1,7.2943015E0,2.484146E1,2.231692E0,8.229286E0,3.8173985E1,3.2144504E0,4.6095476E0],"tree_param":{"num_deleted":"0","num_feature":"27","num_nodes":"17","size_leaf_vector":"1"}},{"base_weights":[-4.4778934E-1,-5.065975E-1,-2.2422275E-2,-5.2264494E-1,2.5304278E-2,1.3530974E-1,-9.990784E-2,-5.284066E-1,7.529291E-3,1.1992716E-1,-2.5128213E-1,7.5041187E-1,-2.59688E-3,-7.181843E-2,-1.1135737E-1,3.4495655E-2,-8.49553E-2,2.5480552E-2,2.0103584E-1,1.612446E-1,-3.949224E-2],"categories":[1,2,0,1,3,0,0],"categories_nodes":[2,7,11,12],"categories_segments":[0,2,5,6],"categories_sizes":[2,3,1,1],"default_left":[1,1,1,1,0,1,0,1,0,0,0,1,0,0,0,0,0,0,0,0,0],"id":19,"left_children":[1,3,5,7,9,11,-1,13,-1,-1,15,17,19,-1,-1,-1,-1,-1,-1,-1,-1],"loss_changes":[4.4538956E0,1.3513985E0,1.7779738E0,5.11322E-1,1.031543E0,1.5175843E0,0E0,5.2443314E-1,0E0,0E0,4.0024105E-1,3.918649E-1,2.6166134E0,0E0,0E0,0E0,0E0,0E0,0E0,0E0,0E0],"parents":[2147483647,0,0,1,1,2,2,3,3,4,4,5,5,7,7,10,10,11,11,12,12],"right_children":[2,4,6,8,10,12,-1,14,-1,-1,16,18,20,-1,-1,-1,-1,-1,-1,-1,-1],"split_conditions":[2.4E0,3E0,NaN,1.9E2,5.615369E3,1.2E2,-9.990784E-2,NaN,7.529291E-3,1.1992716E-1,2.2E1,NaN,NaN,-7.181843E-2,-1.1135737E-1,3.4495655E-2,-8.49553E-2,2.5480552E-2,2.0103584E-1,1.612446E-1,-3.949224E-2],"split_indices":[11,13,3,5,26,5,0,3,0,0,20,10,18,0,0,0,0,0,0,0,0],"split_type":[0,0,1,0,0,0,0,1,0,0,0,1,1,0,0,0,0,0,0,0,0],"sum_hessian":[1.775025E2,1.5577518E2,2.172732E1,1.5123E2,4.5451856E0,1.6867445E1,4.8598757E0,1.4974701E2,1.4829879E0,1.0977407E0,3.447445E0,2.2757068E0,1.4591738E1,2.3457033E1,1.2628997E2,1.0031369E0,2.444308E0,1.0958891E0,1.1798177E0,2.2238572E0,1.2367881E1],"tree_param":{"num_deleted":"0","num_feature":"27","num_nodes":"21","size_leaf_vector":"1"}},{"base_weights":[3.7033466E-1,6.3475823E-1,-1.0394763E-1,7.6475394E-1,7.63324E-2,-4.4048482E-1,1.24275826E-1,8.2171106E-1,3.5667488E-1,4.52504E-1,-3.2951605E-1,-1.2865385E-1,-1.09268E-1,2.970963E-1,-2.0826468E-1,1.6845852E-1,1.0007296E-1,1.4045183E-1,-2.8047744E-2,1.22697406E-1,-5.9941318E-2,1.1195782E-2,-1.0590299E-1,1.15624525E-1,-8.059354E-2,1.7971696E-1,3.3433728E-2,7.362199E-2,-7.87926E-2],"categories":[2,0,1,0,0,0,1,2,3,5,6],"categories_nodes":[3,4,5,8,11,14],"categories_segments":[0,1,2,3,4,5],"categories_sizes":[1,1,1,1,1,6],"default_left":[0,1,0,1,1,0,1,1,1,0,0,1,0,0,1,0,0,0,0,0,0,0,0,0,0,0,0,0,0],"id":20,"left_children":[1,3,5,7,9,11,13,15,17,19,21,23,-1,25,27,-1,-1,-1,-1,-1,-1,-1,-1,-1,-1,-1,-1,-1,-1],"loss_changes":[3.401391E1,1.256826E1,7.562886E0,2.983757E0,5.3330874E0,1.240943E0,3.4544072E0,3.9170074E-1,3.3671546E0,2.3688142E0,1.3335499E0,2.43838E0,0E0,2.9176714E0,2.3686252E0,0E0,0E0,0E0,0E0,0E0,0E0,0E0,0E0,0E0,0E0,0E0,0E0,0E0,0E0],"parents":[2147483647,0,0,1,1,2,2,3,3,4,4,5,5,6,6,7,7,8,8,9,9,10,10,11,11,13,13,14,14],"right_children":[2,4,6,8,10,12,14,16,18,20,22,24,-1,26,28,-1,-1,-1,-1,-1,-1,-1,-1,-1,-1,-1,-1,-1,-1],"split_conditions":[4.93E2,1E0,7.07E2,NaN,NaN,NaN,1.5E0,1.58E2,NaN,2.39E2,4E-1,NaN,-1.09268E-1,1.22E2,NaN,1.6845852E-1,1.0007296E-1,1.4045183E-1,-2.8047744E-2,1.22697406E-1,-5.9941318E-2,1.1195782E-2,-1.0590299E-1,1.15624525E-1,-8.059354E-2,1.7971696E-1,3.3433728E-2,7.362199E-2,-7.87926E-2],"split_indices":[0,13,0,14,4,12,11,5,4,0,11,4,0,5,21,0,0,0,0,0,0,0,0,0,0,0,0,0,0],"split_type":[0,0,0,1,1,1,0,0,1,0,0,1,0,0,1,0,0,0,0,0,0,0,0,0,0,0,0,0,0],"sum_hessian":[2.6969254E2,1.7293745E2,9.675507E1,1.3998169E2,3.2955757E1,3.8723515E1,5.803156E1,1.2194742E2,1.8034277E1,1.7043535E1,1.591222E1,1.037524E1,2.8348274E1,3.8256393E1,1.9775167E1,1.1308353E2,8.863888E0,1.0393063E1,7.641216E0,1.4190913E1,2.8526223E0,5.6814365E0,1.02307825E1,2.5912633E0,7.7839766E0,5.744892E0,3.25115E1,4.5793567E0,1.519581E1],"tree_param":{"num_deleted":"0","num_feature":"27","num_nodes":"29","size_leaf_vector":"1"}},{"base_weights":[1.5862685E-1,-1.8738459E-1,4.013522E-1,-3.9819624E-2,-1.0832571E-1,8.4950763E-1,1.8210211E-1,-1.1032025E-1,4.0073493E-1,1.7269585E-1,7.0305884E-2,4.526019E-1,3.8204663E-2,5.952065E-2,-4.415574E-2,-8.223748E-2,1.3098212E-1,-1.2096054E-2,1.24014355E-1,5.5627327E-2,-3.189424E-2],"categories":[1,4,5],"categories_nodes":[7],"categories_segments":[0],"categories_sizes":[3],"default_left":[0,0,0,0,0,0,0,1,0,0,0,0,0,0,0,0,0,0,0,0,0],"id":21,"left_children":[1,3,5,7,-1,9,11,13,15,-1,-1,17,19,-1,-1,-1,-1,-1,-1,-1,-1],"loss_changes":[1.9960632E1,5.116873E0,1.3549677E1,2.2330065E0,0E0,1.3343811E-2,3.6776912E0,2.8383362E0,2.320096E0,0E0,0E0,2.8619637E0,3.0350518E0,0E0,0E0,0E0,0E0,0E0,0E0,0E0,0E0],"parents":[2147483647,0,0,1,1,2,2,3,3,5,5,6,6,7,7,8,8,11,11,12,12],"right_children":[2,4,6,8,-1,10,12,14,16,-1,-1,18,20,-1,-1,-1,-1,-1,-1,-1,-1],"split_conditions":[4.91E2,3.04E2,6.02E2,7.409E3,-1.0832571E-1,6E1,1.25E2,NaN,2.2E2,1.7269585E-1,7.0305884E-2,6.4E2,8.603823E3,5.952065E-2,-4.415574E-2,-8.223748E-2,1.3098212E-1,-1.2096054E-2,1.24014355E-1,5.5627327E-2,-3.189424E-2],"split_indices":[0,0,0,19,0,1,5,21,6,0,0,0,26,0,0,0,0,0,0,0,0],"split_type":[0,0,0,0,0,0,0,1,0,0,0,0,0,0,0,0,0,0,0,0,0],"sum_hessian":[2.3577141E2,9.729821E1,1.3847319E2,6.94714E1,2.7826813E1,4.4545635E1,9.392756E1,6.053392E1,8.937473E0,4.261601E1,1.9296275E0,3.1870945E1,6.2056614E1,1.253774E1,4.799618E1,1.9835664E0,6.953907E0,7.9999924E0,2.3870953E1,2.7848297E1,3.4208317E1],"tree_param":{"num_deleted":"0","num_feature":"27","num_nodes":"21","size_leaf_vector":"1"}},{"base_weights":[-1.7340343E-1,-5.873571E-2,-1.0948076E-1,6.595771E-2,-2.963597E-1,1.3278419E-1,-1.0975088E-1,2.203431E-1,-3.9672163E-1,-1.1687055E-2,5.2194245E-2,1.2028577E-1,-8.96376E-2,-2.1515941E-2,-1.01324655E-1],"categories":[1,0,3,0,1,3],"categories_nodes":[0,7,8],"categories_segments":[0,1,3],"categories_sizes":[1,2,3],"default_left":[1,0,0,0,1,0,0,1,1,0,0,0,0,0,0],"id":22,"left_children":[1,3,-1,5,7,9,-1,11,13,-1,-1,-1,-1,-1,-1],"loss_changes":[8.247728E0,4.4310107E0,0E0,4.11763E0,2.7539873E0,2.2118447E0,0E0,2.564067E0,1.3251052E0,0E0,0E0,0E0,0E0,0E0,0E0],"parents":[2147483647,0,0,1,1,3,3,4,4,5,5,7,7,8,8],"right_children":[2,4,-1,6,8,10,-1,12,14,-1,-1,-1,-1,-1,-1],"split_conditions":[NaN,1.51E2,-1.0948076E-1,3.86E1,1.26E2,1.26E2,-1.0975088E-1,NaN,NaN,-1.1687055E-2,5.2194245E-2,1.2028577E-1,-8.96376E-2,-2.1515941E-2,-1.01324655E-1],"split_indices":[3,9,0,22,6,5,0,25,25,0,0,0,0,0,0],"split_type":[1,0,0,0,0,0,0,1,1,0,0,0,0,0,0],"sum_hessian":[1.9206825E2,1.478843E2,4.418396E1,9.7462944E1,5.0421352E1,8.861359E1,8.849356E0,8.006298E0,4.2415054E1,3.5781563E1,5.2832027E1,5.163371E0,2.842927E0,1.2226646E1,3.018841E1],"tree_param":{"num_deleted":"0","num_feature":"27","num_nodes":"15","size_leaf_vector":"1"}},{"base_weights":[-1.8450129E-1,-6.955595E-2,-1.0974387E-1,1.3191682E-1,-2.9433015E-1,1.8376964E-1,-1.0216539E-1,7.473006E-1,-3.5151643E-1,1.6302578E-2,1.0618241E-1,1.9357765E-2,2.0105353E-1,-8.517689E-2,1.5799573E-2],"categories":[1,0,1,3],"categories_nodes":[0,1,3],"categories_segments":[0,1,2],"categories_sizes":[1,1,2],"default_left":[1,1,0,1,0,0,0,0,1,0,0,0,0,0,0],"id":23,"left_children":[1,3,-1,5,7,9,-1,11,13,-1,-1,-1,-1,-1,-1],"loss_changes":[7.963105E0,6.6694913E0,0E0,2.6901836E0,4.4035664E0,2.5417163E0,0E0,5.635016E-1,2.1652575E0,0E0,0E0,0E0,0E0,0E0,0E0],"parents":[2147483647,0,0,1,1,3,3,4,4,5,5,7,7,8,8],"right_children":[2,4,-1,6,8,10,-1,12,14,-1,-1,-1,-1,-1,-1],"split_conditions":[NaN,NaN,-1.0974387E-1,NaN,8E1,6.4E1,-1.0216539E-1,1.42E2,2E0,1.6302578E-2,1.0618241E-1,1.9357765E-2,2.0105353E-1,-8.517689E-2,1.5799573E-2],"split_indices":[3,10,0,4,9,1,0,5,13,0,0,0,0,0,0],"split_type":[1,1,0,1,0,0,0,0,0,0,0,0,0,0,0],"sum_hessian":[1.9012007E2,1.4541791E2,4.470217E1,7.690155E1,6.851636E1,7.1821495E1,5.0800543E0,2.9377778E0,6.557858E1,5.6432995E1,1.5388497E1,1.2246907E0,1.7130872E0,5.5928173E1,9.650409E0],"tree_param":{"num_deleted":"0","num_feature":"27","num_nodes":"15","size_leaf_vector":"1"}},{"base_weights":[-4.2608365E-1,-4.891018E-1,-3.3469258E-3,-5.0626713E-1,2.785416E-2,-1.1823035E-1,6.103186E-1,1.229697E-2,-5.1283413E-1,3.658422E-1,-7.905194E-2,2.0676881E-1,-4.326614E-1,3.772305E-3,1.9784836E-1,-1.03845716E-1,7.836309E-3,1.7932436E-1,-6.608284E-2,1.1717405E-1,-5.8680832E-2,-1.0486563E-1,3.9734915E-2],"categories":[1],"categories_nodes":[11],"categories_segments":[0],"categories_sizes":[1],"default_left":[1,1,0,0,0,0,0,0,1,0,0,1,0,0,0,0,0,0,0,0,0,0,0],"id":24,"left_children":[1,3,5,7,9,11,13,-1,15,17,-1,19,21,-1,-1,-1,-1,-1,-1,-1,-1,-1,-1],"loss_changes":[4.316492E0,1.2657967E0,1.6256543E0,5.407448E-1,9.2843354E-1,2.071781E0,7.964543E-1,0E0,4.9729538E-1,1.6142385E0,0E0,2.108929E0,6.934787E-1,0E0,0E0,0E0,0E0,0E0,0E0,0E0,0E0,0E0,0E0],"parents":[2147483647,0,0,1,1,2,2,3,3,4,4,5,5,6,6,8,8,9,9,11,11,12,12],"right_children":[2,4,6,8,10,12,14,-1,16,18,-1,20,22,-1,-1,-1,-1,-1,-1,-1,-1,-1,-1],"split_conditions":[2.4E0,3E0,3.86E1,1.8335E1,1.1E0,1.3E1,5.3E1,1.229697E-2,1.9E2,1.64E2,-7.905194E-2,NaN,3.8E0,3.772305E-3,1.9784836E-1,-1.03845716E-1,7.836309E-3,1.7932436E-1,-6.608284E-2,1.1717405E-1,-5.8680832E-2,-1.0486563E-1,3.9734915E-2],"split_indices":[11,13,22,22,11,20,1,0,5,0,0,8,11,0,0,0,0,0,0,0,0,0,0],"split_type":[0,0,0,0,0,0,0,0,0,0,0,1,0,0,0,0,0,0,0,0,0,0,0],"sum_hessian":[1.6109148E2,1.4005608E2,2.1035406E1,1.3557503E2,4.4810505E0,1.8398405E1,2.637001E0,1.4545995E0,1.3412042E2,2.5663664E0,1.9146842E0,9.215536E0,9.182869E0,1.4396476E0,1.1973535E0,1.3264331E2,1.4771192E0,1.2929398E0,1.2734265E0,5.14477E0,4.070766E0,8.166614E0,1.016256E0],"tree_param":{"num_deleted":"0","num_feature":"27","num_nodes":"23","size_leaf_vector":"1"}},{"base_weights":[3.2446417E-1,5.5798244E-1,-8.928559E-2,6.793986E-1,5.4334275E-2,2.6232585E-1,-2.7914906E-1,7.3548794E-1,3.0221927E-1,3.7836304E-1,-3.1698182E-1,-7.4091256E-2,4.579969E-1,-5.106147E-1,-8.047551E-2,1.5494235E-1,1.0435807E-1,1.327251E-1,-2.463833E-2,1.2011146E-1,-2.2886211E-2,7.996489E-3,-1.0367711E-1,3.268051E-2,-1.00031786E-1,1.0893547E-1,-8.143747E-2,-1.0892459E-1,4.0671047E-2,-5.0718483E-2,6.950438E-2],"categories":[0,2,0,1,0],"categories_nodes":[2,3,4,9,14],"categories_segments":[0,1,2,3,4],"categories_sizes":[1,1,1,1,1],"default_left":[0,1,1,1,1,0,0,0,0,1,0,0,1,0,1,0,0,0,0,0,0,0,0,0,0,0,0,0,0,0,0],"id":25,"left_children":[1,3,5,7,9,11,13,15,17,19,21,23,25,27,29,-1,-1,-1,-1,-1,-1,-1,-1,-1,-1,-1,-1,-1,-1,-1,-1],"loss_changes":[2.5389915E1,1.0223473E1,6.447483E0,2.6360435E0,4.172093E0,2.271774E0,2.8324437E0,5.757942E-1,3.0318666E0,2.0878878E0,1.1881728E0,1.4338481E0,1.8441663E0,8.069935E-1,2.6675117E0,0E0,0E0,0E0,0E0,0E0,0E0,0E0,0E0,0E0,0E0,0E0,0E0,0E0,0E0,0E0,0E0],"parents":[2147483647,0,0,1,1,2,2,3,3,4,4,5,5,6,6,7,7,8,8,9,9,10,10,11,11,12,12,13,13,14,14],"right_children":[2,4,6,8,10,12,14,16,18,20,22,24,26,28,30,-1,-1,-1,-1,-1,-1,-1,-1,-1,-1,-1,-1,-1,-1,-1,-1],"split_conditions":[4.91E2,1E0,NaN,NaN,NaN,1.37E2,7.07E2,5.8E1,7E-1,NaN,4E-1,1.21E2,2.88E2,4.2211137E4,NaN,1.5494235E-1,1.0435807E-1,1.327251E-1,-2.463833E-2,1.2011146E-1,-2.2886211E-2,7.996489E-3,-1.0367711E-1,3.268051E-2,-1.00031786E-1,1.0893547E-1,-8.143747E-2,-1.0892459E-1,4.0671047E-2,-5.0718483E-2,6.950438E-2],"split_indices":[0,13,4,14,4,9,0,1,11,12,11,9,6,26,10,0,0,0,0,0,0,0,0,0,0,0,0,0,0,0,0],"split_type":[0,0,1,1,1,0,0,0,0,1,0,0,0,0,1,0,0,0,0,0,0,0,0,0,0,0,0,0,0,0,0],"sum_hessian":[2.6127054E2,1.6678775E2,9.448278E1,1.3410876E2,3.2678993E1,3.2995735E1,6.148704E1,1.15920555E2,1.8188213E1,1.7440538E1,1.5238455E1,1.2362407E1,2.063333E1,2.7674543E1,3.3812496E1,9.572512E1,2.019543E1,9.531122E0,8.657091E0,1.1869888E1,5.5706515E0,5.785616E0,9.452839E0,8.333647E0,4.02876E0,1.9091097E1,1.542234E0,2.6642675E1,1.0318686E0,2.436486E1,9.447637E0],"tree_param":{"num_deleted":"0","num_feature":"27","num_nodes":"31","size_leaf_vector":"1"}},{"base_weights":[1.4264327E-1,-1.6088451E-1,3.4346697E-1,-2.2825375E-2,-1.05774485E-1,7.609619E-1,1.5369251E-1,8.371604E-2,-2.99513E-1,5.171999E-2,1.5438978E-1,2.4369188E-1,-2.0223455E-1,5.8064688E-2,-1.5964678E-2,-7.6665446E-2,1.1123618E-1,8.458649E-2,-1.2013952E-2,4.600307E-2,-9.787236E-2],"categories":[0,1,1,2,2,1,2],"categories_nodes":[3,5,7,11,12],"categories_segments":[0,1,2,4,5],"categories_sizes":[1,1,2,1,2],"default_left":[0,0,0,1,0,0,1,1,0,0,0,1,1,0,0,0,0,0,0,0,0],"id":26,"left_children":[1,3,5,7,-1,9,11,13,15,-1,-1,17,19,-1,-1,-1,-1,-1,-1,-1,-1],"loss_changes":[1.4103487E1,4.684701E0,1.0897423E1,2.0376456E0,0E0,3.8764954E-2,3.1509728E0,1.7150748E0,1.59012E0,0E0,0E0,4.2579937E0,2.6057851E0,0E0,0E0,0E0,0E0,0E0,0E0,0E0,0E0],"parents":[2147483647,0,0,1,1,2,2,3,3,5,5,6,6,7,7,8,8,11,11,12,12],"right_children":[2,4,6,8,-1,10,12,14,16,-1,-1,18,20,-1,-1,-1,-1,-1,-1,-1,-1],"split_conditions":[4.91E2,6.00001E0,6.02E2,NaN,-1.05774485E-1,NaN,2E0,NaN,2.85E2,5.171999E-2,1.5438978E-1,NaN,NaN,5.8064688E-2,-1.5964678E-2,-7.6665446E-2,1.1123618E-1,8.458649E-2,-1.2013952E-2,4.600307E-2,-9.787236E-2],"split_indices":[0,13,0,2,0,12,11,25,0,0,0,8,25,0,0,0,0,0,0,0,0],"split_type":[0,0,0,1,0,1,0,1,0,0,0,1,1,0,0,0,0,0,0,0,0],"sum_hessian":[2.294667E2,9.144871E1,1.3801799E2,6.727207E1,2.417664E1,4.2190674E1,9.582732E1,4.907332E1,1.819875E1,1.4281447E0,4.0762527E1,7.67386E1,1.9088713E1,2.1339203E1,2.7734116E1,1.7078007E1,1.1207426E0,4.8014423E1,2.8724182E1,7.6983285E0,1.1390386E1],"tree_param":{"num_deleted":"0","num_feature":"27","num_nodes":"21","size_leaf_vector":"1"}},{"base_weights":[-1.5443645E-1,-5.1356196E-2,-1.07158855E-1,-3.792197E-1,2.7499037E-2,-4.6334434E-1,2.4027278E-1,7.78115E-2,-3.5148296E-1,7.650963E-2,-1.06635116E-1,1.310698E-1,-6.660302E-2,2.7001938E-2,-6.1362393E-2,-1.06231034E-1,-1.4331575E-2],"categories":[1,0,2,6,7],"categories_nodes":[0,4],"categories_segments":[0,1],"categories_sizes":[1,4],"default_left":[1,0,0,0,1,0,0,1,0,0,0,0,0,0,0,0,0],"id":27,"left_children":[1,3,-1,5,7,9,11,13,15,-1,-1,-1,-1,-1,-1,-1,-1],"loss_changes":[7.2200394E0,3.7913558E0,0E0,1.5924983E0,2.2929804E0,1.7022576E0,1.1835389E0,2.3671188E0,6.711881E-1,0E0,0E0,0E0,0E0,0E0,0E0,0E0,0E0],"parents":[2147483647,0,0,1,1,3,3,4,4,5,5,6,6,7,7,8,8],"right_children":[2,4,-1,6,8,10,12,14,16,-1,-1,-1,-1,-1,-1,-1,-1],"split_conditions":[NaN,1E0,-1.07158855E-1,2.8E0,NaN,1.12E2,1.45E2,1.56E2,6.1E1,7.650963E-2,-1.06635116E-1,1.310698E-1,-6.660302E-2,2.7001938E-2,-6.1362393E-2,-1.06231034E-1,-1.4331575E-2],"split_indices":[3,13,0,11,21,9,9,5,1,0,0,0,0,0,0,0,0],"split_type":[1,0,0,0,1,0,0,0,0,0,0,0,0,0,0,0,0],"sum_hessian":[1.833671E2,1.4524289E2,3.8124203E1,2.74214E1,1.1782149E2,2.4364813E1,3.0565872E0,1.0471459E2,1.3106899E1,1.5165142E0,2.2848299E1,1.689907E0,1.3666804E0,9.172321E1,1.2991378E1,7.434884E0,5.6720157E0],"tree_param":{"num_deleted":"0","num_feature":"27","num_nodes":"17","size_leaf_vector":"1"}},{"base_weights":[-1.6421546E-1,-5.995691E-2,-1.0739421E-1,1.019234E-1,-2.9932484E-1,6.363954E-2,2.1886373E-1,-4.8463482E-1,-9.409102E-2,1.3594924E-1,5.2212677E-3,-1.0302229E-1,3.155131E-2,1.262896E-1,-3.7719842E-2],"categories":[1],"categories_nodes":[0],"categories_segments":[0],"categories_sizes":[1],"default_left":[1,1,0,1,0,0,0,0,0,0,0,0,0,0,0],"id":28,"left_children":[1,3,-1,5,7,9,-1,11,13,-1,-1,-1,-1,-1,-1],"loss_changes":[7.027947E0,5.574987E0,0E0,3.2017527E0,2.1595397E0,1.9239964E0,0E0,6.730776E-1,2.0906403E0,0E0,0E0,0E0,0E0,0E0,0E0],"parents":[2147483647,0,0,1,1,3,3,4,4,5,5,7,7,8,8],"right_children":[2,4,-1,6,8,10,-1,12,14,-1,-1,-1,-1,-1,-1],"split_conditions":[NaN,1.36E2,-1.0739421E-1,4E0,2E0,8E1,2.1886373E-1,1.74E2,1.09E2,1.3594924E-1,5.2212677E-3,-1.0302229E-1,3.155131E-2,1.262896E-1,-3.7719842E-2],"split_indices":[3,9,0,11,13,9,0,5,0,0,0,0,0,0,0],"split_type":[1,0,0,0,0,0,0,0,0,0,0,0,0,0,0],"sum_hessian":[1.8066766E2,1.4208719E2,3.8580486E1,8.510582E1,5.698137E1,8.296922E1,2.136596E0,2.9228739E1,2.775263E1,3.7817268E0,7.918749E1,2.8094025E1,1.1347141E0,2.5436468E0,2.5208982E1],"tree_param":{"num_deleted":"0","num_feature":"27","num_nodes":"15","size_leaf_vector":"1"}},{"base_weights":[-4.0553206E-1,-4.724577E-1,8.364578E-3,-4.9068528E-1,3.000175E-2,1.4410216E-1,-9.309731E-2,1.3910006E-2,-4.9787235E-1,3.46561E-1,-7.649692E-2,1.4856356E-2,6.70487E-1,-1.0098399E-1,1.0185055E-2,1.6276973E-1,-6.3382015E-2,1.3196076E-1,-3.2167774E-2,2.0827038E-2,1.8126422E-1],"categories":[1,2,0,1,3],"categories_nodes":[2,12],"categories_segments":[0,2],"categories_sizes":[2,3],"default_left":[1,1,1,0,0,0,0,0,1,0,0,1,1,0,0,0,0,0,0,0,0],"id":29,"left_children":[1,3,5,7,9,11,-1,-1,13,15,-1,17,19,-1,-1,-1,-1,-1,-1,-1,-1],"loss_changes":[4.0795193E0,1.1748352E0,1.4474841E0,5.2703285E-1,8.346188E-1,1.1769737E0,0E0,0E0,4.9318504E-1,1.3637055E0,0E0,1.8092176E0,3.619578E-1,0E0,0E0,0E0,0E0,0E0,0E0,0E0,0E0],"parents":[2147483647,0,0,1,1,2,2,3,3,4,4,5,5,8,8,9,9,11,11,12,12],"right_children":[2,4,6,8,10,12,-1,-1,14,16,-1,18,20,-1,-1,-1,-1,-1,-1,-1,-1],"split_conditions":[2.4E0,3E0,NaN,1.8335E1,1.1E0,3.806E1,-9.309731E-2,1.3910006E-2,1.9E2,1.64E2,-7.649692E-2,1.2E2,NaN,-1.0098399E-1,1.0185055E-2,1.6276973E-1,-6.3382015E-2,1.3196076E-1,-3.2167774E-2,2.0827038E-2,1.8126422E-1],"split_indices":[11,13,3,22,11,22,0,0,5,0,0,5,25,0,0,0,0,0,0,0,0],"split_type":[0,0,1,0,0,0,0,0,0,0,0,0,1,0,0,0,0,0,0,0,0],"sum_hessian":[1.4613084E2,1.25669106E2,2.0461744E1,1.2129245E2,4.3766575E0,1.644645E1,4.0152955E0,1.4264063E0,1.1986604E2,2.566694E0,1.8099637E0,1.4029855E1,2.4165943E0,1.1842519E2,1.4408455E0,1.3730159E0,1.1936781E0,2.413803E0,1.1616052E1,1.1342566E0,1.2823377E0],"tree_param":{"num_deleted":"0","num_feature":"27","num_nodes":"21","size_leaf_vector":"1"}},{"base_weights":[2.8631026E-1,5.303794E-1,-2.9895162E-2,6.209447E-1,2.234996E-1,2.303787E-1,-2.5890487E-1,6.857903E-1,3.7147513E-1,-8.451307E-2,3.0351833E-1,-2.2118302E-1,5.0554276E-1,-4.9732098E-1,-7.261581E-2,1.4107572E-1,4.557493E-2,9.547808E-2,-9.795501E-2,1.9316022E-1,3.683592E-2,4.6217497E-2,-9.25228E-2,1.2513644E-1,-3.3139236E-2,-1.0691356E-1,3.8181733E-2,1.0696147E-1,-3.574403E-2],"categories":[0,1,1],"categories_nodes":[0,3,5],"categories_segments":[0,1,2],"categories_sizes":[1,1,1],"default_left":[1,0,0,1,0,0,0,1,0,0,0,0,1,0,0,0,0,0,0,0,0,0,0,0,0,0,0,0,0],"id":30,"left_children":[1,3,5,7,9,11,13,15,17,-1,19,21,23,25,27,-1,-1,-1,-1,-1,-1,-1,-1,-1,-1,-1,-1,-1,-1],"loss_changes":[1.9391533E1,3.8006783E0,6.634922E0,1.506649E0,1.8788031E0,6.5930843E0,2.591087E0,6.038246E-1,2.4819448E0,0E0,2.2494502E0,2.3394327E0,2.7419443E0,7.627797E-1,2.3111935E0,0E0,0E0,0E0,0E0,0E0,0E0,0E0,0E0,0E0,0E0,0E0,0E0,0E0,0E0],"parents":[2147483647,0,0,1,1,2,2,3,3,4,4,5,5,6,6,7,7,8,8,10,10,11,11,12,12,13,13,14,14],"right_children":[2,4,6,8,10,12,14,16,18,-1,20,22,24,26,28,-1,-1,-1,-1,-1,-1,-1,-1,-1,-1,-1,-1,-1,-1],"split_conditions":[NaN,4.93E2,4.91E2,NaN,6.02E2,NaN,7.07E2,2E0,2.1E0,-8.451307E-2,4.6E1,5E-1,1E0,4.2211137E4,5.2E1,1.4107572E-1,4.557493E-2,9.547808E-2,-9.795501E-2,1.9316022E-1,3.683592E-2,4.6217497E-2,-9.25228E-2,1.2513644E-1,-3.3139236E-2,-1.0691356E-1,3.8181733E-2,1.0696147E-1,-3.574403E-2],"split_indices":[4,0,0,12,0,14,0,13,11,0,1,11,13,26,1,0,0,0,0,0,0,0,0,0,0,0,0,0,0],"split_type":[1,0,0,1,0,1,0,0,0,0,0,0,0,0,0,0,0,0,0,0,0,0,0,0,0,0,0,0,0],"sum_hessian":[2.5005833E2,1.4074461E2,1.0931373E2,1.0788312E2,3.286149E1,5.1161613E1,5.8152115E1,8.423784E1,2.3645277E1,3.1497576E0,2.9711733E1,1.9445875E1,3.1715736E1,2.4775002E1,3.3377113E1,8.026398E1,3.9738655E0,2.1452751E1,2.192527E0,3.4534585E0,2.6258274E1,6.7827163E0,1.2663159E1,2.6958527E1,4.75721E0,2.3714832E1,1.0601696E0,4.3624854E0,2.9014626E1],"tree_param":{"num_deleted":"0","num_feature":"27","num_nodes":"29","size_leaf_vector":"1"}},{"base_weights":[1.286318E-1,-1.3637762E-1,2.9643196E-1,-1.0050591E-2,-1.03556685E-1,6.970597E-1,1.3008057E-1,2.924076E-1,-9.2399046E-2,1.4226234E-1,5.0903548E-2,8.603112E-2,7.406916E-1,1.7246585E-1,-2.3855407E-2,-3.7664693E-2,8.848182E-2,3.7223835E-2,-4.0576726E-2,1.9048189E-1,-1.36366E-3],"categories":[1,4,5,7,2,0,2,3,5,7],"categories_nodes":[3,6,7,11],"categories_segments":[0,4,5,8],"categories_sizes":[4,1,3,2],"default_left":[0,0,0,1,0,0,1,1,0,0,0,1,0,0,0,0,0,0,0,0,0],"id":31,"left_children":[1,3,5,7,-1,9,11,13,15,-1,-1,17,19,-1,-1,-1,-1,-1,-1,-1,-1],"loss_changes":[9.978947E0,4.2027054E0,9.050431E0,1.6864315E0,0E0,7.132912E-2,2.5761614E0,3.5044286E0,2.8087802E0,0E0,0E0,2.7176373E0,1.0308456E0,0E0,0E0,0E0,0E0,0E0,0E0,0E0,0E0],"parents":[2147483647,0,0,1,1,2,2,3,3,5,5,6,6,7,7,8,8,11,11,12,12],"right_children":[2,4,6,8,-1,10,12,14,16,-1,-1,18,20,-1,-1,-1,-1,-1,-1,-1,-1],"split_conditions":[4.91E2,3.04E2,6.02E2,NaN,-1.03556685E-1,6E1,NaN,NaN,7.409E3,1.4226234E-1,5.0903548E-2,NaN,1.31E2,1.7246585E-1,-2.3855407E-2,-3.7664693E-2,8.848182E-2,3.7223835E-2,-4.0576726E-2,1.9048189E-1,-1.36366E-3],"split_indices":[0,0,0,21,0,1,18,17,19,0,0,21,9,0,0,0,0,0,0,0,0],"split_type":[0,0,0,1,0,0,1,1,0,0,0,1,0,0,0,0,0,0,0,0,0],"sum_hessian":[2.224951E2,8.6333885E1,1.3616121E2,6.562447E1,2.070941E1,3.90136E1,9.714761E1,1.3497727E1,5.2126747E1,3.7207993E1,1.8056055E0,9.167507E1,5.472542E0,5.2018433E0,8.295883E0,4.4748432E1,7.378315E0,6.835189E1,2.3323183E1,4.05105E0,1.4214917E0],"tree_param":{"num_deleted":"0","num_feature":"27","num_nodes":"21","size_leaf_vector":"1"}},{"base_weights":[-1.3674994E-1,-4.4942953E-2,-1.0504891E-1,5.677989E-2,-2.607051E-1,1.1471494E-1,-1.0680578E-1,-3.1403257E-3,-4.434556E-1,1.8739063E-1,1.727265E-2,6.3673966E-2,-6.922563E-2,-1.0912191E-1,9.871431E-3],"categories":[1,1,2,3,0,3,2],"categories_nodes":[0,4,7,8],"categories_segments":[0,1,4,6],"categories_sizes":[1,3,2,1],"default_left":[1,0,0,0,1,0,0,1,1,0,0,0,0,0,0],"id":32,"left_children":[1,3,-1,5,7,9,-1,11,13,-1,-1,-1,-1,-1,-1],"loss_changes":[6.262027E0,3.1674254E0,0E0,3.4306924E0,2.1733253E0,2.0281386E0,0E0,2.3358467E0,1.3871298E0,0E0,0E0,0E0,0E0,0E0,0E0],"parents":[2147483647,0,0,1,1,3,3,4,4,5,5,7,7,8,8],"right_children":[2,4,-1,6,8,10,-1,12,14,-1,-1,-1,-1,-1,-1],"split_conditions":[NaN,1.51E2,-1.0504891E-1,3.86E1,NaN,1.6330444E3,-1.0680578E-1,NaN,NaN,1.8739063E-1,1.727265E-2,6.3673966E-2,-6.922563E-2,-1.0912191E-1,9.871431E-3],"split_indices":[3,9,0,22,4,26,0,25,8,0,0,0,0,0,0],"split_type":[1,0,0,0,1,0,0,1,1,0,0,0,0,0,0],"sum_hessian":[1.752334E2,1.4264093E2,3.2592464E1,9.743924E1,4.5201694E1,8.947145E1,7.9677887E0,1.91829E1,2.6018795E1,1.9140437E0,8.755741E1,9.938509E0,9.2443905E0,2.1462711E1,4.556084E0],"tree_param":{"num_deleted":"0","num_feature":"27","num_nodes":"15","size_leaf_vector":"1"}},{"base_weights":[-1.4474557E-1,-5.1052906E-2,-1.05258085E-1,1.14493005E-1,-2.5871962E-1,1.5788093E-1,-9.7700335E-2,2.6424912E-1,-3.5523552E-1,1.542715E-2,9.6792124E-2,1.7046428E-1,-6.6228025E-2,-9.0032496E-2,1.1977617E-2],"categories":[1,0,1,3],"categories_nodes":[0,1,3],"categories_segments":[0,1,2],"categories_sizes":[1,1,2],"default_left":[1,1,0,1,0,0,0,0,1,0,0,0,0,0,0],"id":33,"left_children":[1,3,-1,5,7,9,-1,11,13,-1,-1,-1,-1,-1,-1],"loss_changes":[6.1556616E0,4.8411746E0,0E0,2.1327386E0,3.2429051E0,1.9124168E0,0E0,3.8863366E0,2.1192327E0,0E0,0E0,0E0,0E0,0E0,0E0],"parents":[2147483647,0,0,1,1,3,3,4,4,5,5,7,7,8,8],"right_children":[2,4,-1,6,8,10,-1,12,14,-1,-1,-1,-1,-1,-1],"split_conditions":[NaN,NaN,-1.05258085E-1,NaN,1.05E2,3.3E1,-9.7700335E-2,1.957E3,2E0,1.542715E-2,9.6792124E-2,1.7046428E-1,-6.6228025E-2,-9.0032496E-2,1.1977617E-2],"split_indices":[3,10,0,4,9,20,0,19,13,0,0,0,0,0,0],"split_type":[1,1,0,1,0,0,0,0,0,0,0,0,0,0,0],"sum_hessian":[1.7194778E2,1.3895871E2,3.298908E1,7.757045E1,6.1388256E1,7.3052216E1,4.5182323E0,9.293546E0,5.209471E1,5.9544197E1,1.350802E1,4.4584002E0,4.835146E0,4.2330517E1,9.764193E0],"tree_param":{"num_deleted":"0","num_feature":"27","num_nodes":"15","size_leaf_vector":"1"}},{"base_weights":[-3.854916E-1,-4.5619106E-1,1.5097426E-2,-4.7542712E-1,2.9598983E-2,1.371952E-1,-8.968602E-2,-2.953649E-1,-5.130666E-1,3.2723653E-1,-7.422339E-2,3.373613E-1,-1.5219434E-1,-1.038983E-1,6.7166746E-2,-5.59788E-2,-1.0671332E-1,1.4847372E-1,-6.0812186E-2,-4.7964863E-2,1.2504338E-1,-7.288012E-2,1.0955676E-1],"categories":[1,2],"categories_nodes":[2],"categories_segments":[0],"categories_sizes":[2],"default_left":[1,1,1,0,0,0,0,0,0,0,0,0,0,0,0,0,0,0,0,0,0,0,0],"id":34,"left_children":[1,3,5,7,9,11,-1,13,15,17,-1,19,21,-1,-1,-1,-1,-1,-1,-1,-1,-1,-1],"loss_changes":[3.7902012E0,1.0754147E0,1.2504529E0,5.8929825E-1,7.4968386E-1,1.0588683E0,0E0,3.1814919E0,2.7634048E-1,1.1571009E0,0E0,1.9098496E0,1.3583369E0,0E0,0E0,0E0,0E0,0E0,0E0,0E0,0E0,0E0,0E0],"parents":[2147483647,0,0,1,1,2,2,3,3,4,4,5,5,7,7,8,8,9,9,11,11,12,12],"right_children":[2,4,6,8,10,12,-1,14,16,18,-1,20,22,-1,-1,-1,-1,-1,-1,-1,-1,-1,-1],"split_conditions":[2.4E0,3E0,NaN,2.486E1,1.1E0,1.6E1,-8.968602E-2,1.4319031E4,2.2215645E3,1.64E2,-7.422339E-2,5.8E1,3.7E0,-1.038983E-1,6.7166746E-2,-5.59788E-2,-1.0671332E-1,1.4847372E-1,-6.0812186E-2,-4.7964863E-2,1.2504338E-1,-7.288012E-2,1.0955676E-1],"split_indices":[11,13,3,22,11,20,0,26,26,0,0,1,11,0,0,0,0,0,0,0,0,0,0],"split_type":[0,0,1,0,0,0,0,0,0,0,0,0,0,0,0,0,0,0,0,0,0,0,0],"sum_hessian":[1.325848E2,1.12577354E2,2.000744E1,1.0830989E2,4.2674665E0,1.6393301E1,3.6141396E0,2.0255836E1,8.8054054E1,2.5538948E0,1.7135719E0,9.592531E0,6.8007693E0,1.5078666E1,5.1771703E0,8.300076E0,7.975398E1,1.4345889E0,1.1193058E0,3.2475848E0,6.3449464E0,5.586554E0,1.2142153E0],"tree_param":{"num_deleted":"0","num_feature":"27","num_nodes":"23","size_leaf_vector":"1"}},{"base_weights":[2.5358975E-1,4.7315454E-1,-3.318189E-2,5.602381E-1,1.9831507E-1,2.0001554E-1,-2.3875123E-1,6.1733645E-1,2.6677263E-1,3.4078482E-1,-1.6493312E-1,4.3400916E-1,-2.6524794E-1,-4.8469532E-1,-6.299691E-2,1.2561537E-1,-6.0041463E-3,9.861072E-2,-2.5629306E-2,1.2921713E-1,1.0653399E-2,-1.1573487E-1,6.2147584E-2,1.1300083E-1,-4.070591E-2,3.294913E-2,-1.0744958E-1,-1.0512283E-1,3.7914846E-2,-3.7218682E-2,8.889498E-2],"categories":[0,2,1,2,3,4,6,7],"categories_nodes":[0,5,9],"categories_segments":[0,1,2],"categories_sizes":[1,1,6],"default_left":[1,0,0,1,0,1,0,0,0,1,0,1,0,0,0,0,0,0,0,0,0,0,0,0,0,0,0,0,0,0,0],"id":35,"left_children":[1,3,5,7,9,11,13,15,17,19,21,23,25,27,29,-1,-1,-1,-1,-1,-1,-1,-1,-1,-1,-1,-1,-1,-1,-1,-1],"loss_changes":[1.50477495E1,3.1266365E0,5.0553303E0,1.5474854E0,1.8208227E0,5.502467E0,2.3889856E0,6.0829544E-1,1.707784E0,2.144082E0,2.2029233E0,2.8964376E0,2.097836E0,7.3916864E-1,2.1938033E0,0E0,0E0,0E0,0E0,0E0,0E0,0E0,0E0,0E0,0E0,0E0,0E0,0E0,0E0,0E0,0E0],"parents":[2147483647,0,0,1,1,2,2,3,3,4,4,5,5,6,6,7,7,8,8,9,9,10,10,11,11,12,12,13,13,14,14],"right_children":[2,4,6,8,10,12,14,16,18,20,22,24,26,28,30,-1,-1,-1,-1,-1,-1,-1,-1,-1,-1,-1,-1,-1,-1,-1,-1],"split_conditions":[NaN,4.93E2,4.91E2,1E0,1.4319031E4,NaN,7.07E2,3.6E0,1.87E2,NaN,3.959E3,1E0,5E-1,4.0565E1,2.1677283E4,1.2561537E-1,-6.0041463E-3,9.861072E-2,-2.5629306E-2,1.2921713E-1,1.0653399E-2,-1.1573487E-1,6.2147584E-2,1.1300083E-1,-4.070591E-2,3.294913E-2,-1.0744958E-1,-1.0512283E-1,3.7914846E-2,-3.7218682E-2,8.889498E-2],"split_indices":[4,0,0,13,26,14,0,11,0,21,19,13,11,22,26,0,0,0,0,0,0,0,0,0,0,0,0,0,0,0,0],"split_type":[1,0,0,0,0,1,0,0,0,1,0,0,0,0,0,0,0,0,0,0,0,0,0,0,0,0,0,0,0,0,0],"sum_hessian":[2.3773674E2,1.3427786E2,1.0345889E2,1.0118024E2,3.3097622E1,4.848482E1,5.4974068E1,8.377657E1,1.7403667E1,2.381785E1,9.279771E0,3.230496E1,1.6179863E1,2.2179333E1,3.2794735E1,8.243861E1,1.3379631E0,1.0906158E1,6.497508E0,1.09468355E1,1.2871016E1,4.8471503E0,4.432621E0,2.6893026E1,5.411934E0,6.4219623E0,9.7579E0,2.1118217E1,1.0611147E0,2.6902369E1,5.892365E0],"tree_param":{"num_deleted":"0","num_feature":"27","num_nodes":"31","size_leaf_vector":"1"}},{"base_weights":[1.1779817E-1,-1.1122774E-1,2.5729942E-1,5.388345E-3,-1.0136839E-1,6.4771533E-1,1.11506514E-1,1.8287699E-1,-1.4698784E-1,3.878534E-2,1.3200785E-1,1.8706012E-1,-1.9945152E-1,-2.4063082E-2,1.3103044E-1,8.732627E-4,-9.3088396E-2,-1.4940935E-2,6.881666E-2,5.024935E-2,-8.778525E-2],"categories":[1,2,1,0,1,2,3,4],"categories_nodes":[3,5,12],"categories_segments":[0,2,3],"categories_sizes":[2,1,5],"default_left":[0,0,0,1,0,0,1,0,0,0,0,1,1,0,0,0,0,0,0,0,0],"id":36,"left_children":[1,3,5,7,-1,9,11,13,15,-1,-1,17,19,-1,-1,-1,-1,-1,-1,-1,-1],"loss_changes":[6.920593E0,3.8021517E0,7.575576E0,1.7738508E0,0E0,7.514286E-2,2.3640761E0,4.415231E0,1.7039807E0,0E0,0E0,3.3219059E0,2.251974E0,0E0,0E0,0E0,0E0,0E0,0E0,0E0,0E0],"parents":[2147483647,0,0,1,1,2,2,3,3,5,5,6,6,7,7,8,8,11,11,12,12],"right_children":[2,4,6,8,-1,10,12,14,16,-1,-1,18,20,-1,-1,-1,-1,-1,-1,-1,-1],"split_conditions":[4.91E2,6.00001E0,6.02E2,NaN,-1.0136839E-1,NaN,2E0,1.4E2,1.4E2,3.878534E-2,1.3200785E-1,1.05E2,NaN,-2.4063082E-2,1.3103044E-1,8.732627E-4,-9.3088396E-2,-1.4940935E-2,6.881666E-2,5.024935E-2,-8.778525E-2],"split_indices":[0,13,0,25,0,12,11,5,5,0,0,9,21,0,0,0,0,0,0,0,0],"split_type":[0,0,0,1,0,1,0,0,0,0,0,0,1,0,0,0,0,0,0,0,0],"sum_hessian":[2.1471526E2,8.135445E1,1.3336081E2,6.3594833E1,1.7759611E1,3.532419E1,9.803663E1,2.928423E1,3.4310604E1,1.3764577E0,3.394773E1,7.9193405E1,1.884322E1,1.8288546E1,1.0995684E1,2.392559E1,1.0385012E1,2.9889874E1,4.9303535E1,6.5211225E0,1.2322097E1],"tree_param":{"num_deleted":"0","num_feature":"27","num_nodes":"21","size_leaf_vector":"1"}},{"base_weights":[-1.19885705E-1,-3.8229663E-2,-1.03175044E-1,-3.4348214E-1,2.3895973E-2,7.7206075E-2,-4.12592E-1,6.913633E-2,-3.3392644E-1,-9.7018234E-2,4.793265E-2,1.04090475E-1,5.4200813E-3,2.1003658E-2,-9.019693E-2],"categories":[1,0,2,6,7,2],"categories_nodes":[0,4,8],"categories_segments":[0,1,5],"categories_sizes":[1,4,1],"default_left":[1,0,0,0,1,0,0,0,0,0,0,0,0,0,0],"id":37,"left_children":[1,3,-1,5,7,-1,9,11,13,-1,-1,-1,-1,-1,-1],"loss_changes":[5.440675E0,2.683663E0,0E0,1.365365E0,1.9358321E0,0E0,1.1724713E0,1.9916441E0,7.376168E-1,0E0,0E0,0E0,0E0,0E0,0E0],"parents":[2147483647,0,0,1,1,3,3,4,4,6,6,7,7,8,8],"right_children":[2,4,-1,6,8,-1,10,12,14,-1,-1,-1,-1,-1,-1],"split_conditions":[NaN,1E0,-1.03175044E-1,1.731677E3,NaN,7.7206075E-2,3.26E2,2.203472E3,NaN,-9.7018234E-2,4.793265E-2,1.04090475E-1,5.4200813E-3,2.1003658E-2,-9.019693E-2],"split_indices":[3,13,0,26,21,0,6,26,14,0,0,0,0,0,0],"split_type":[1,0,0,0,1,0,0,0,1,0,0,0,0,0,0],"sum_hessian":[1.6786987E2,1.400807E2,2.7789165E1,2.292256E1,1.1715815E2,1.5868003E0,2.1335758E1,1.0472438E2,1.2433772E1,1.9432133E1,1.9036256E0,7.953286E0,9.6771095E1,2.639402E0,9.794371E0],"tree_param":{"num_deleted":"0","num_feature":"27","num_nodes":"15","size_leaf_vector":"1"}},{"base_weights":[-1.27684E-1,-4.4027954E-2,-1.0336721E-1,8.759281E-2,-2.6229146E-1,2.8261786E-2,6.1521435E-1,-4.5583332E-1,-8.0591135E-2,-1.580823E-2,5.4297265E-2,2.112406E-1,9.489334E-3,-9.8408096E-2,3.5383128E-2,4.734255E-2,-5.984798E-2],"categories":[1,2,1,2],"categories_nodes":[0,5,8],"categories_segments":[0,1,2],"categories_sizes":[1,1,2],"default_left":[1,1,0,1,0,1,0,0,1,0,0,0,0,0,0,0,0],"id":38,"left_children":[1,3,-1,5,7,9,11,13,15,-1,-1,-1,-1,-1,-1,-1,-1],"loss_changes":[5.3545704E0,3.959995E0,0E0,2.682309E0,1.7850463E0,2.0720613E0,2.1204977E0,6.568227E-1,2.0088646E0,0E0,0E0,0E0,0E0,0E0,0E0,0E0,0E0],"parents":[2147483647,0,0,1,1,3,3,4,4,5,5,6,6,7,7,8,8],"right_children":[2,4,-1,6,8,10,12,14,16,-1,-1,-1,-1,-1,-1,-1,-1],"split_conditions":[NaN,1.36E2,-1.0336721E-1,2.8E0,2E0,NaN,6.2E1,1.74E2,NaN,-1.580823E-2,5.4297265E-2,2.112406E-1,9.489334E-3,-9.8408096E-2,3.5383128E-2,4.734255E-2,-5.984798E-2],"split_indices":[3,9,0,11,13,8,1,5,25,0,0,0,0,0,0,0,0],"split_type":[1,0,0,0,0,1,0,0,1,0,0,0,0,0,0,0,0],"sum_hessian":[1.6417706E2,1.3604466E2,2.8132395E1,8.524035E1,5.080432E1,7.757105E1,7.6692977E0,2.3869993E1,2.6934326E1,5.4293507E1,2.3277544E1,3.832386E0,3.8369114E0,2.2788374E1,1.0816194E0,1.09545E1,1.5979827E1],"tree_param":{"num_deleted":"0","num_feature":"27","num_nodes":"17","size_leaf_vector":"1"}},{"base_weights":[-3.6654982E-1,-4.40527E-1,1.6011305E-2,-4.6062955E-1,2.6479457E-2,-8.882171E-2,5.0620705E-1,-2.7180967E-1,-5.018342E-1,3.068013E-1,-7.207235E-2,1.7378022E-1,-3.9111042E-1,4.309112E-3,1.5535152E-1,-1.0187489E-1,6.2089946E-2,-5.1196087E-2,-1.04922175E-1,1.3652186E-1,-5.8689475E-2,9.2825346E-2,-5.2851267E-2,-9.870242E-2,2.5335802E-2],"categories":[0,1,3,1],"categories_nodes":[6,11],"categories_segments":[0,3],"categories_sizes":[3,1],"default_left":[1,1,0,0,0,0,1,0,0,0,0,1,0,0,0,0,0,0,0,0,0,0,0,0,0],"id":39,"left_children":[1,3,5,7,9,11,13,15,17,19,-1,21,23,-1,-1,-1,-1,-1,-1,-1,-1,-1,-1,-1,-1],"loss_changes":[3.45183E0,9.700756E-1,1.1081113E0,6.2509155E-1,6.697196E-1,1.4884377E0,4.8077804E-1,2.8850923E0,3.089924E-1,9.965957E-1,0E0,1.4285638E0,5.1989806E-1,0E0,0E0,0E0,0E0,0E0,0E0,0E0,0E0,0E0,0E0,0E0,0E0],"parents":[2147483647,0,0,1,1,2,2,3,3,4,4,5,5,6,6,7,7,8,8,9,9,11,11,12,12],"right_children":[2,4,6,8,10,12,14,16,18,20,-1,22,24,-1,-1,-1,-1,-1,-1,-1,-1,-1,-1,-1,-1],"split_conditions":[2.4E0,3E0,3.86E1,2.486E1,1.1E0,1.3E1,NaN,1.4319031E4,2.2215645E3,1.64E2,-7.207235E-2,NaN,3.7E0,4.309112E-3,1.5535152E-1,-1.0187489E-1,6.2089946E-2,-5.1196087E-2,-1.04922175E-1,1.3652186E-1,-5.8689475E-2,9.2825346E-2,-5.2851267E-2,-9.870242E-2,2.5335802E-2],"split_indices":[11,13,22,22,11,20,25,26,26,0,0,8,11,0,0,0,0,0,0,0,0,0,0,0,0],"split_type":[0,0,0,0,0,0,1,0,0,0,0,1,0,0,0,0,0,0,0,0,0,0,0,0,0],"sum_hessian":[1.2072018E2,1.0103179E2,1.9688385E1,9.687539E1,4.1563993E0,1.6894203E1,2.794182E0,1.8714228E1,7.816116E1,2.529976E0,1.6264232E0,9.268051E0,7.626152E0,1.387774E0,1.4064081E0,1.338021E1,5.3340178E0,7.664841E0,7.049632E1,1.4714863E0,1.0584896E0,5.537821E0,3.7302306E0,6.4061184E0,1.2200334E0],"tree_param":{"num_deleted":"0","num_feature":"27","num_nodes":"25","size_leaf_vector":"1"}},{"base_weights":[2.2527418E-1,4.2736924E-1,-3.919258E-2,4.806355E-1,-2.2011683E-3,-2.2466256E-1,1.7611688E-1,5.477278E-1,2.6519442E-1,2.428958E-1,-5.4025966E-1,-3.0635482E-1,1.13497615E-1,2.9316628E-1,-3.8260436E-1,1.1254618E-1,-2.4646899E-2,7.490655E-2,-4.1743908E-2,-5.0640654E-2,1.0050806E-1,-1.7888863E-2,-1.3123542E-1,5.7757176E-2,-6.906366E-2,-3.185254E-2,1.1848306E-1,-3.1583786E-2,9.189273E-2,-9.695056E-2,3.6602706E-2],"categories":[0,0,0,2,5,6,2,0,1],"categories_nodes":[0,2,4,6,10,13],"categories_segments":[0,1,2,6,7,8],"categories_sizes":[1,1,4,1,1,1],"default_left":[1,1,1,0,1,0,1,0,1,0,0,0,0,0,0,0,0,0,0,0,0,0,0,0,0,0,0,0,0,0,0],"id":40,"left_children":[1,3,5,7,9,11,13,15,17,19,21,23,25,27,29,-1,-1,-1,-1,-1,-1,-1,-1,-1,-1,-1,-1,-1,-1,-1,-1],"loss_changes":[1.2110995E1,2.9379253E0,3.9902747E0,1.5053825E0,2.1298175E0,1.5151572E0,3.142957E0,9.3647003E-1,1.5837827E0,1.5572789E0,2.05369E-1,1.1068559E0,1.5517327E0,2.9893239E0,5.7756615E-1,0E0,0E0,0E0,0E0,0E0,0E0,0E0,0E0,0E0,0E0,0E0,0E0,0E0,0E0,0E0,0E0],"parents":[2147483647,0,0,1,1,2,2,3,3,4,4,5,5,6,6,7,7,8,8,9,9,10,10,11,11,12,12,13,13,14,14],"right_children":[2,4,6,8,10,12,14,16,18,20,22,24,26,28,30,-1,-1,-1,-1,-1,-1,-1,-1,-1,-1,-1,-1,-1,-1,-1,-1],"split_conditions":[NaN,1.8E0,NaN,4.93E2,NaN,3.62E1,NaN,1.74E2,1.42E2,1.42E2,NaN,6.6E2,1.41E2,NaN,3.6307797E4,1.1254618E-1,-2.4646899E-2,7.490655E-2,-4.1743908E-2,-5.0640654E-2,1.0050806E-1,-1.7888863E-2,-1.3123542E-1,5.7757176E-2,-6.906366E-2,-3.185254E-2,1.1848306E-1,-3.1583786E-2,9.189273E-2,-9.695056E-2,3.6602706E-2],"split_indices":[4,11,10,0,21,22,3,5,5,9,7,19,9,14,26,0,0,0,0,0,0,0,0,0,0,0,0,0,0,0,0],"split_type":[1,0,1,0,1,0,1,0,0,0,1,0,0,1,0,0,0,0,0,0,0,0,0,0,0,0,0,0,0,0,0],"sum_hessian":[2.25283E2,1.2735068E2,9.793232E1,1.1319566E2,1.4155017E1,5.258853E1,4.534379E1,8.5139336E1,2.8056324E1,1.010194E1,4.0530763E0,4.243194E1,1.0156593E1,3.7882812E1,7.4609756E0,8.343499E1,1.704343E0,2.2967188E1,5.0891366E0,3.479162E0,6.6227784E0,1.191362E0,2.8617144E0,2.2133183E0,4.021862E1,6.8963404E0,3.2602534E0,1.0217634E1,2.7665178E1,6.4407654E0,1.0202104E0],"tree_param":{"num_deleted":"0","num_feature":"27","num_nodes":"31","size_leaf_vector":"1"}},{"base_weights":[1.070319E-1,-8.8469975E-2,2.251614E-1,1.5361386E-2,-4.6891496E-1,1.2550221E-1,9.468485E-2,-1.8545139E-1,1.3785489E-1,3.617315E-3,-1.004832E-1,2.937043E-1,-1.5814884E-2,4.739934E-2,-6.915481E-2,1.1116214E-1,-2.6013604E-3,-9.3777E-3,9.610085E-2,2.9713726E-2,-4.7271796E-2],"categories":[1,2,4,5,6,7],"categories_nodes":[7],"categories_segments":[0],"categories_sizes":[6],"default_left":[0,0,0,0,0,0,0,1,0,0,0,0,1,0,0,0,0,0,0,0,0],"id":41,"left_children":[1,3,5,7,9,-1,11,13,15,-1,-1,17,19,-1,-1,-1,-1,-1,-1,-1,-1],"loss_changes":[4.8394265E0,3.1404974E0,6.7844515E0,1.5821774E0,2.870679E-1,0E0,2.1954567E0,1.7346652E0,2.5217469E0,0E0,0E0,2.2885177E0,2.391772E0,0E0,0E0,0E0,0E0,0E0,0E0,0E0,0E0],"parents":[2147483647,0,0,1,1,2,2,3,3,4,4,6,6,7,7,8,8,11,11,12,12],"right_children":[2,4,6,8,10,-1,12,14,16,-1,-1,18,20,-1,-1,-1,-1,-1,-1,-1,-1],"split_conditions":[4.93E2,3.04E2,6.02E2,7.256723E3,3.5E1,1.2550221E-1,1.25E2,NaN,1.32E2,3.617315E-3,-1.004832E-1,6.61E2,1E0,4.739934E-2,-6.915481E-2,1.1116214E-1,-2.6013604E-3,-9.3777E-3,9.610085E-2,2.9713726E-2,-4.7271796E-2],"split_indices":[0,0,0,26,1,0,5,21,9,0,0,0,11,0,0,0,0,0,0,0,0],"split_type":[0,0,0,0,0,0,0,1,0,0,0,0,0,0,0,0,0,0,0,0,0],"sum_hessian":[2.0768597E2,7.831966E1,1.2936633E2,6.2281387E1,1.6038267E1,3.0745928E1,9.86204E1,2.340229E1,3.8879097E1,1.0618836E0,1.4976382E1,3.461602E1,6.400438E1,6.3064985E0,1.7095793E1,9.599595E0,2.9279501E1,1.2526114E1,2.2089907E1,3.685826E1,2.7146116E1],"tree_param":{"num_deleted":"0","num_feature":"27","num_nodes":"21","size_leaf_vector":"1"}},{"base_weights":[-1.0450043E-1,-3.238458E-2,-1.0144001E-1,5.2424353E-2,-2.2965524E-1,1.0335901E-1,-1.0393321E-1,1.8791692E-1,-3.3498245E-1,3.2681625E-2,-4.8305113E-2,9.485678E-2,-8.35397E-2,-5.9655425E-3,-9.327393E-2],"categories":[1,0,3,0,1,3],"categories_nodes":[0,7,8],"categories_segments":[0,1,3],"categories_sizes":[1,2,3],"default_left":[1,0,0,0,1,1,0,1,1,0,0,0,0,0,0],"id":42,"left_children":[1,3,-1,5,7,9,-1,11,13,-1,-1,-1,-1,-1,-1],"loss_changes":[4.699997E0,2.3343282E0,0E0,2.9060974E0,1.9066224E0,1.9182699E0,0E0,1.7735913E0,1.3426397E0,0E0,0E0,0E0,0E0,0E0,0E0],"parents":[2147483647,0,0,1,1,3,3,4,4,5,5,7,7,8,8],"right_children":[2,4,-1,6,8,10,-1,12,14,-1,-1,-1,-1,-1,-1],"split_conditions":[NaN,1.51E2,-1.0144001E-1,3.86E1,1.26E2,1.56E2,-1.0393321E-1,NaN,NaN,3.2681625E-2,-4.8305113E-2,9.485678E-2,-8.35397E-2,-5.9655425E-3,-9.327393E-2],"split_indices":[3,9,0,22,6,5,0,25,25,0,0,0,0,0,0],"split_type":[1,0,0,0,0,0,0,1,1,0,0,0,0,0,0],"sum_hessian":[1.6140549E2,1.3780725E2,2.3598238E1,9.688816E1,4.0919083E1,8.9719536E1,7.1686263E0,8.084354E0,3.283473E1,7.6862854E1,1.2856677E1,5.636144E0,2.4482102E0,1.0251656E1,2.2583075E1],"tree_param":{"num_deleted":"0","num_feature":"27","num_nodes":"15","size_leaf_vector":"1"}},{"base_weights":[-1.1188715E-1,-3.7701137E-2,-1.01622336E-1,9.507756E-2,-2.2425616E-1,1.3152559E-1,-9.377838E-2,5.3010625E-1,-2.8039944E-1,8.961045E-3,8.275127E-2,6.1529106E-3,1.4919582E-1,1.0782176E-1,-6.481808E-2],"categories":[1,0,1,3,0,1,2,3,4,5,7],"categories_nodes":[0,1,3,8],"categories_segments":[0,1,2,4],"categories_sizes":[1,1,2,7],"default_left":[1,1,0,1,0,0,0,0,1,0,0,0,0,0,0],"id":43,"left_children":[1,3,-1,5,7,9,-1,11,13,-1,-1,-1,-1,-1,-1],"loss_changes":[4.6358137E0,3.3521779E0,0E0,1.6908829E0,2.5292528E0,1.8226892E0,0E0,4.340515E-1,2.0713177E0,0E0,0E0,0E0,0E0,0E0,0E0],"parents":[2147483647,0,0,1,1,3,3,4,4,5,5,7,7,8,8],"right_children":[2,4,-1,6,8,10,-1,12,14,-1,-1,-1,-1,-1,-1],"split_conditions":[NaN,NaN,-1.01622336E-1,NaN,8E1,6.4E1,-9.377838E-2,1.42E2,NaN,8.961045E-3,8.275127E-2,6.1529106E-3,1.4919582E-1,1.0782176E-1,-6.481808E-2],"split_indices":[3,10,0,4,9,1,0,5,21,0,0,0,0,0,0],"split_type":[1,1,0,1,0,0,0,0,1,0,0,0,0,0,0],"sum_hessian":[1.5736295E2,1.3346849E2,2.3894455E1,7.8258865E1,5.5209625E1,7.422844E1,4.030425E0,3.2395656E0,5.197006E1,5.766776E1,1.656068E1,1.3226404E0,1.9169253E0,2.0565395E0,4.991352E1],"tree_param":{"num_deleted":"0","num_feature":"27","num_nodes":"15","size_leaf_vector":"1"}},{"base_weights":[-3.4783465E-1,-4.2519274E-1,2.0194918E-2,-4.460775E-1,2.2373289E-2,1.2070727E-1,-8.40564E-2,-2.4191605E-1,-4.9044633E-1,2.8861699E-1,-7.020762E-2,-7.909369E-2,2.1817905E-1,7.420752E-2,-8.804718E-2,-1.0317055E-1,-3.625944E-2,1.2632963E-1,-5.6612726E-2,1.688173E-1,-4.7107064E-3],"categories":[1,2,0,1,3],"categories_nodes":[2,3],"categories_segments":[0,2],"categories_sizes":[2,3],"default_left":[1,1,1,1,0,0,0,0,1,0,0,0,0,0,0,0,0,0,0,0,0],"id":44,"left_children":[1,3,5,7,9,11,-1,13,15,17,-1,-1,19,-1,-1,-1,-1,-1,-1,-1,-1],"loss_changes":[3.1697388E0,8.6800957E-1,9.4681835E-1,6.7622566E-1,6.0284853E-1,9.5449203E-1,0E0,2.3075423E0,4.6500778E-1,8.639296E-1,0E0,0E0,2.3135886E0,0E0,0E0,0E0,0E0,0E0,0E0,0E0,0E0],"parents":[2147483647,0,0,1,1,2,2,3,3,4,4,5,5,7,7,8,8,9,9,12,12],"right_children":[2,4,6,8,10,12,-1,14,16,18,-1,-1,20,-1,-1,-1,-1,-1,-1,-1,-1],"split_conditions":[2.4E0,3E0,NaN,NaN,1.1E0,2.53E1,-8.40564E-2,2.486E1,1.6E2,1.64E2,-7.020762E-2,-7.909369E-2,2.8405E1,7.420752E-2,-8.804718E-2,-1.0317055E-1,-3.625944E-2,1.2632963E-1,-5.6612726E-2,1.688173E-1,-4.7107064E-3],"split_indices":[11,13,3,3,11,22,0,22,5,0,0,0,22,0,0,0,0,0,0,0,0],"split_type":[0,0,1,1,0,0,0,0,0,0,0,0,0,0,0,0,0,0,0,0,0],"sum_hessian":[1.10034225E2,9.079436E1,1.9239872E1,8.674969E1,4.0446677E0,1.625631E1,2.9835625E0,1.663889E1,7.0110794E1,2.493718E0,1.5509497E0,2.0965369E0,1.4159773E1,3.8545618E0,1.27843275E1,6.416868E1,5.942122E0,1.492976E0,1.000742E0,3.2508001E0,1.0908972E1],"tree_param":{"num_deleted":"0","num_feature":"27","num_nodes":"21","size_leaf_vector":"1"}},{"base_weights":[1.9827607E-1,3.8378474E-1,-4.154251E-2,4.3428177E-1,-1.1126473E-2,1.1361775E-1,-2.542434E-1,6.22183E-1,3.49109E-1,2.163295E-1,-5.18477E-1,-3.535571E-1,2.1284658E-1,-3.1925118E-1,3.8349587E-1,1.3133161E-1,-1.4133269E-2,5.102688E-2,1.1138167E-1,-4.815934E-2,9.107425E-2,-1.7623313E-2,-1.2606137E-1,2.7147127E-2,-1.2811476E-1,6.206548E-2,-6.972244E-2,-8.1275806E-2,-1.1301147E-3,1.8175034E-1,-7.033585E-2],"categories":[0,0,2,5,6,0,0,2],"categories_nodes":[0,4,8,10,12],"categories_segments":[0,1,5,6,7],"categories_sizes":[1,4,1,1,1],"default_left":[1,1,0,0,1,0,0,0,1,0,0,0,1,0,0,0,0,0,0,0,0,0,0,0,0,0,0,0,0,0,0],"id":45,"left_children":[1,3,5,7,9,11,13,15,17,19,21,23,25,27,29,-1,-1,-1,-1,-1,-1,-1,-1,-1,-1,-1,-1,-1,-1,-1,-1],"loss_changes":[9.606807E0,2.4307957E0,3.1618068E0,1.509388E0,1.8162735E0,2.6517916E0,1.7952223E0,8.196211E-1,1.3520622E0,1.3008882E0,1.7862022E-1,1.5071578E0,2.6513994E0,1.0131016E0,1.9363382E0,0E0,0E0,0E0,0E0,0E0,0E0,0E0,0E0,0E0,0E0,0E0,0E0,0E0,0E0,0E0,0E0],"parents":[2147483647,0,0,1,1,2,2,3,3,4,4,5,5,6,6,7,7,8,8,9,9,10,10,11,11,12,12,13,13,14,14],"right_children":[2,4,6,8,10,12,14,16,18,20,22,24,26,28,30,-1,-1,-1,-1,-1,-1,-1,-1,-1,-1,-1,-1,-1,-1,-1,-1],"split_conditions":[NaN,1.8E0,1.3E0,4.7E1,NaN,1.1E1,3.8245594E4,8.978E3,NaN,1.42E2,NaN,5.2E1,NaN,1.7E2,2.1E0,1.3133161E-1,-1.4133269E-2,5.102688E-2,1.1138167E-1,-4.815934E-2,9.107425E-2,-1.7623313E-2,-1.2606137E-1,2.7147127E-2,-1.2811476E-1,6.206548E-2,-6.972244E-2,-8.1275806E-2,-1.1301147E-3,1.8175034E-1,-7.033585E-2],"split_indices":[4,11,11,1,21,20,26,19,2,9,7,1,3,9,11,0,0,0,0,0,0,0,0,0,0,0,0,0,0,0,0],"split_type":[1,0,0,0,1,0,0,0,1,0,1,0,1,0,0,0,0,0,0,0,0,0,0,0,0,0,0,0,0,0,0],"sum_hessian":[2.145811E2,1.2065197E2,9.392913E1,1.06884964E2,1.3767009E1,5.4580086E1,3.9349045E1,3.1371267E1,7.5513695E1,9.901546E0,3.8654628E0,9.112917E0,4.5467167E1,3.616226E1,3.1867876E0,2.9934038E1,1.4372292E0,5.3532227E1,2.198147E1,3.3973525E0,6.5041933E0,1.1660484E0,2.6994143E0,3.5640943E0,5.5488224E0,3.912206E1,6.3451104E0,2.8068203E1,8.094054E0,1.7210544E0,1.4657332E0],"tree_param":{"num_deleted":"0","num_feature":"27","num_nodes":"31","size_leaf_vector":"1"}},{"base_weights":[9.879144E-2,-7.159027E-2,1.9798379E-1,2.4494737E-2,-9.766207E-2,5.8485055E-1,8.299634E-2,1.855763E-1,-1.1973513E-1,1.20212756E-1,3.2730997E-2,-2.0434429E-1,1.5000959E-1,-1.8110752E-2,1.1378771E-1,5.2984217E-3,-8.889527E-2,-1.03391126E-1,1.24217525E-1,5.4210205E-2,-2.7459089E-2],"categories":[1,2],"categories_nodes":[3],"categories_segments":[0],"categories_sizes":[2],"default_left":[0,0,0,1,0,0,0,0,0,0,0,0,1,0,0,0,0,0,0,0,0],"id":46,"left_children":[1,3,5,7,-1,9,11,13,15,-1,-1,17,19,-1,-1,-1,-1,-1,-1,-1,-1],"loss_changes":[3.4361749E0,3.024546E0,5.6562023E0,1.4648142E0,0E0,1.01159096E-1,1.95665E0,3.1981533E0,1.5962871E0,0E0,0E0,5.311293E0,2.8778262E0,0E0,0E0,0E0,0E0,0E0,0E0,0E0,0E0],"parents":[2147483647,0,0,1,1,2,2,3,3,5,5,6,6,7,7,8,8,11,11,12,12],"right_children":[2,4,6,8,-1,10,12,14,16,-1,-1,18,20,-1,-1,-1,-1,-1,-1,-1,-1],"split_conditions":[4.91E2,6.00001E0,6.02E2,NaN,-9.766207E-2,6E1,1.05E2,1.4E2,1.4E2,1.20212756E-1,3.2730997E-2,2.8E1,2.14E2,-1.8110752E-2,1.1378771E-1,5.2984217E-3,-8.889527E-2,-1.03391126E-1,1.24217525E-1,5.4210205E-2,-2.7459089E-2],"split_indices":[0,13,0,25,0,1,9,5,5,0,0,20,6,0,0,0,0,0,0,0,0],"split_type":[0,0,0,1,0,0,0,0,0,0,0,0,0,0,0,0,0,0,0,0,0],"sum_hessian":[2.0147856E2,7.423835E1,1.2724021E2,6.109307E1,1.3145281E1,2.8217686E1,9.902253E1,2.8725092E1,3.2367977E1,2.6760538E1,1.4571466E0,1.8338984E1,8.068355E1,1.714186E1,1.1583233E1,2.295157E1,9.416409E0,1.3572471E1,4.7665124E0,5.6807255E1,2.3876291E1],"tree_param":{"num_deleted":"0","num_feature":"27","num_nodes":"21","size_leaf_vector":"1"}},{"base_weights":[-9.152376E-2,-2.7746413E-2,-9.9882424E-2,-2.0520186E-1,5.376697E-2,1.726562E-1,-3.197826E-1,2.1240893E-1,-1.6819477E-1,1.17226854E-1,-9.1907464E-2,-9.819448E-2,-2.3323176E-2,5.4013588E-2,-9.13619E-2,8.994134E-3,-7.98855E-2],"categories":[1,0,1,2,3,0,3,0,2,6,7],"categories_nodes":[0,1,3,4,7],"categories_segments":[0,1,2,5,7],"categories_sizes":[1,1,3,2,4],"default_left":[1,0,0,1,1,0,1,1,0,0,0,0,0,0,0,0,0],"id":47,"left_children":[1,3,-1,5,7,9,11,13,15,-1,-1,-1,-1,-1,-1,-1,-1],"loss_changes":[4.065893E0,1.9881327E0,0E0,1.926855E0,3.3616104E0,3.0684245E0,1.1086297E0,2.2658727E0,1.9860086E0,0E0,0E0,0E0,0E0,0E0,0E0,0E0,0E0],"parents":[2147483647,0,0,1,1,3,3,4,4,5,5,6,6,7,7,8,8],"right_children":[2,4,-1,6,8,10,12,14,16,-1,-1,-1,-1,-1,-1,-1,-1],"split_conditions":[NaN,NaN,-9.9882424E-2,NaN,NaN,1.35E2,1.3E2,NaN,1E0,1.17226854E-1,-9.1907464E-2,-9.819448E-2,-2.3323176E-2,5.4013588E-2,-9.13619E-2,8.994134E-3,-7.98855E-2],"split_indices":[3,18,0,25,25,9,5,21,23,0,0,0,0,0,0,0,0],"split_type":[1,1,0,1,1,0,0,1,0,0,0,0,0,0,0,0,0],"sum_hessian":[1.5582881E2,1.3568167E2,2.0147135E1,4.222973E1,9.345195E1,9.708086E0,3.252164E1,5.452472E1,3.8927227E1,5.913375E0,3.794711E0,1.6880995E1,1.5640649E1,5.074872E1,3.7760024E0,2.0674051E1,1.8253176E1],"tree_param":{"num_deleted":"0","num_feature":"27","num_nodes":"17","size_leaf_vector":"1"}},{"base_weights":[-9.718937E-2,-3.1032398E-2,-1.0006084E-1,2.3726945E-1,-1.1173575E-1,4.1050777E-1,-2.4222843E-1,-3.5922334E-1,1.4660538E-2,-8.5400365E-2,1.0362716E-1,-1.0154201E-1,6.0981628E-2,-8.0950096E-2,3.9571557E-2,6.577805E-2,-2.3834363E-2],"categories":[1,0],"categories_nodes":[0,8],"categories_segments":[0,1],"categories_sizes":[1,1],"default_left":[1,0,0,0,0,0,0,0,0,0,0,0,0,0,0,0,0],"id":48,"left_children":[1,3,-1,5,7,9,11,13,15,-1,-1,-1,-1,-1,-1,-1,-1],"loss_changes":[4.045697E0,2.8821094E0,0E0,2.659247E0,3.198009E0,2.2952168E0,1.4341481E0,9.5618725E-1,2.9207947E0,0E0,0E0,0E0,0E0,0E0,0E0,0E0,0E0],"parents":[2147483647,0,0,1,1,3,3,4,4,5,5,6,6,7,7,8,8],"right_children":[2,4,-1,6,8,10,12,14,16,-1,-1,-1,-1,-1,-1,-1,-1],"split_conditions":[NaN,1.12E2,-1.0006084E-1,7.67E2,9E-1,2.4985E1,1.42E2,3.09E2,NaN,-8.5400365E-2,1.0362716E-1,-1.0154201E-1,6.0981628E-2,-8.0950096E-2,3.9571557E-2,6.577805E-2,-2.3834363E-2],"split_indices":[3,9,0,0,11,22,5,6,18,0,0,0,0,0,0,0,0],"split_type":[1,0,0,0,0,0,0,0,1,0,0,0,0,0,0,0,0],"sum_hessian":[1.5128334E2,1.3088089E2,2.040246E1,2.9816061E1,1.0106482E2,2.2008474E1,7.807586E0,3.354355E1,6.752128E1,2.1683133E0,1.984016E1,5.305373E0,2.5022132E0,3.1262114E1,2.281434E0,1.9732698E1,4.7788578E1],"tree_param":{"num_deleted":"0","num_feature":"27","num_nodes":"17","size_leaf_vector":"1"}},{"base_weights":[-3.2978526E-1,-4.1045648E-1,2.1803806E-2,-1.9550975E-1,-4.6184975E-1,-7.932498E-2,4.6924904E-1,-4.368173E-1,3.0474672E-1,-2.4188797E-1,-5.139424E-1,1.5235418E-1,-3.701651E-1,1.9794758E-3,1.448323E-1,-9.851507E-2,1.9202484E-2,2.3765968E-1,-4.6966787E-2,-8.098688E-2,6.239438E-2,-3.976866E-2,-1.05437756E-1,8.3024494E-2,-5.6381285E-2,-9.581574E-2,2.5606949E-2],"categories":[0,1,3,4,5],"categories_nodes":[8,11],"categories_segments":[0,3],"categories_sizes":[3,2],"default_left":[1,0,0,0,0,0,0,0,1,0,0,1,0,0,0,0,0,0,0,0,0,0,0,0,0,0,0],"id":49,"left_children":[1,3,5,7,9,11,13,15,17,19,21,23,25,-1,-1,-1,-1,-1,-1,-1,-1,-1,-1,-1,-1,-1,-1],"loss_changes":[2.898181E0,8.255434E-1,9.404241E-1,2.2735977E0,6.3392925E-1,1.2110568E0,4.4063413E-1,4.1487813E-1,3.3106737E0,1.4411674E0,1.1477852E-1,1.2862636E0,4.8943138E-1,0E0,0E0,0E0,0E0,0E0,0E0,0E0,0E0,0E0,0E0,0E0,0E0,0E0,0E0],"parents":[2147483647,0,0,1,1,2,2,3,3,4,4,5,5,6,6,7,7,8,8,9,9,10,10,11,11,12,12],"right_children":[2,4,6,8,10,12,14,16,18,20,22,24,26,-1,-1,-1,-1,-1,-1,-1,-1,-1,-1,-1,-1,-1,-1],"split_conditions":[2.4E0,2.486E1,3.86E1,1.4319031E4,4.296271E3,1.3E1,1.94E2,6.9E1,NaN,1.56E2,4.2E1,NaN,3.7E0,1.9794758E-3,1.448323E-1,-9.851507E-2,1.9202484E-2,2.3765968E-1,-4.6966787E-2,-8.098688E-2,6.239438E-2,-3.976866E-2,-1.05437756E-1,8.3024494E-2,-5.6381285E-2,-9.581574E-2,2.5606949E-2],"split_indices":[11,22,22,26,26,20,6,1,3,5,0,21,11,0,0,0,0,0,0,0,0,0,0,0,0,0,0],"split_type":[0,0,0,0,0,0,0,0,1,0,0,1,0,0,0,0,0,0,0,0,0,0,0,0,0,0,0],"sum_hessian":[1.0086581E2,8.190539E1,1.8960419E1,1.6731579E1,6.517381E1,1.6136143E1,2.824275E0,1.1372612E1,5.3589673E0,1.356E1,5.161381E1,9.246594E0,6.8895493E0,1.3786955E0,1.4455795E0,1.0363654E1,1.0089576E0,1.5760149E0,3.7829525E0,1.0683775E1,2.8762252E0,2.7281828E0,4.8885628E1,5.788239E0,3.458355E0,5.685088E0,1.2044609E0],"tree_param":{"num_deleted":"0","num_feature":"27","num_nodes":"27","size_leaf_vector":"1"}},{"base_weights":[1.7464483E-1,3.467101E-1,-4.4882245E-2,4.3241715E-1,1.3361533E-1,-2.0263664E-1,1.3455331E-1,5.0759E-1,1.3549145E-1,2.5747058E-1,-1.8757145E-1,-2.8021833E-1,1.0410106E-1,-2.242343E-1,2.7693668E-1,4.6837628E-2,1.10587955E-1,1.0114986E-1,-2.271655E-2,7.8257136E-2,-3.6350347E-2,-1.1470453E-1,4.5419272E-2,-6.648471E-2,4.07776E-2,-8.3499216E-2,6.655299E-2,6.0024876E-2,-7.1261086E-2,-9.043744E-2,7.753613E-2],"categories":[0,0,1,2,3,4,6,1],"categories_nodes":[0,2,6,9,12],"categories_segments":[0,1,2,3,7],"categories_sizes":[1,1,1,4,1],"default_left":[1,0,1,1,0,0,0,0,0,1,0,1,0,0,0,0,0,0,0,0,0,0,0,0,0,0,0,0,0,0,0],"id":50,"left_children":[1,3,5,7,9,11,13,15,17,19,21,23,25,27,29,-1,-1,-1,-1,-1,-1,-1,-1,-1,-1,-1,-1,-1,-1,-1,-1],"loss_changes":[7.811441E0,2.0574512E0,2.6193693E0,1.7648401E0,1.4273825E0,1.1983056E0,2.2813969E0,6.787605E-1,1.7137544E0,1.566392E0,1.7669005E0,1.0656099E0,1.4087638E0,9.999327E-1,2.7226915E0,0E0,0E0,0E0,0E0,0E0,0E0,0E0,0E0,0E0,0E0,0E0,0E0,0E0,0E0,0E0,0E0],"parents":[2147483647,0,0,1,1,2,2,3,3,4,4,5,5,6,6,7,7,8,8,9,9,10,10,11,11,12,12,13,13,14,14],"right_children":[2,4,6,8,10,12,14,16,18,20,22,24,26,28,30,-1,-1,-1,-1,-1,-1,-1,-1,-1,-1,-1,-1,-1,-1,-1,-1],"split_conditions":[NaN,4.93E2,NaN,1E0,1.4319031E4,3.62E1,NaN,8.5E1,8.283681E3,NaN,3.959E3,3.1E2,NaN,2.4225E1,1.1E1,4.6837628E-2,1.10587955E-1,1.0114986E-1,-2.271655E-2,7.8257136E-2,-3.6350347E-2,-1.1470453E-1,4.5419272E-2,-6.648471E-2,4.07776E-2,-8.3499216E-2,6.655299E-2,6.0024876E-2,-7.1261086E-2,-9.043744E-2,7.753613E-2],"split_indices":[4,0,10,13,26,22,14,0,26,21,19,6,14,22,20,0,0,0,0,0,0,0,0,0,0,0,0,0,0,0,0],"split_type":[1,0,1,0,0,0,1,0,0,1,0,0,1,0,0,0,0,0,0,0,0,0,0,0,0,0,0,0,0,0,0],"sum_hessian":[2.0538774E2,1.148158E2,9.057194E1,8.1148506E1,3.3667297E1,4.812903E1,4.244291E1,6.418841E1,1.6960094E1,2.4440853E1,9.226444E0,3.8482334E1,9.646694E0,1.189477E1,3.0548138E1,1.0009265E1,5.4179146E1,6.4063315E0,1.05537615E1,1.8817104E1,5.623748E0,4.580274E0,4.6461697E0,3.501924E1,3.4630935E0,2.6884224E0,6.9582715E0,2.13717E0,9.7576E0,3.6214955E0,2.6926643E1],"tree_param":{"num_deleted":"0","num_feature":"27","num_nodes":"31","size_leaf_vector":"1"}},{"base_weights":[9.092483E-2,-5.4714274E-2,1.7580459E-1,3.1655617E-2,-4.4948688E-1,1.1595724E-1,7.180215E-2,8.7328896E-2,-3.878022E-1,-9.699502E-2,-5.262963E-3,3.6031738E-2,5.608088E-1,-3.0360345E-2,4.9745128E-2,-1.0010276E-1,2.63795E-2,-8.937716E-3,6.351111E-2,1.4574006E-1,-8.7752035E-3],"categories":[2,2],"categories_nodes":[6,11],"categories_segments":[0,1],"categories_sizes":[1,1],"default_left":[0,0,0,0,0,0,1,0,0,0,0,1,0,0,0,0,0,0,0,0,0],"id":51,"left_children":[1,3,5,7,9,-1,11,13,15,-1,-1,17,19,-1,-1,-1,-1,-1,-1,-1,-1],"loss_changes":[2.4438992E0,2.5125E0,5.1954937E0,1.4595903E0,1.8575001E-1,0E0,1.733713E0,2.1494584E0,4.9582195E-1,0E0,0E0,2.1617644E0,7.188716E-1,0E0,0E0,0E0,0E0,0E0,0E0,0E0,0E0],"parents":[2147483647,0,0,1,1,2,2,3,3,4,4,6,6,7,7,8,8,11,11,12,12],"right_children":[2,4,6,8,10,-1,12,14,16,-1,-1,18,20,-1,-1,-1,-1,-1,-1,-1,-1],"split_conditions":[4.93E2,3.04E2,6.02E2,3.2108662E4,1.1E0,1.1595724E-1,NaN,7.256723E3,4.688926E4,-9.699502E-2,-5.262963E-3,NaN,1.31E2,-3.0360345E-2,4.9745128E-2,-1.0010276E-1,2.63795E-2,-8.937716E-3,6.351111E-2,1.4574006E-1,-8.7752035E-3],"split_indices":[0,0,0,26,11,0,18,26,26,0,0,16,9,0,0,0,0,0,0,0,0],"split_type":[0,0,0,0,0,0,1,0,0,0,0,1,0,0,0,0,0,0,0,0,0],"sum_hessian":[1.9591937E2,7.2270676E1,1.236487E2,6.0052063E1,1.2218612E1,2.4378683E1,9.927002E1,5.3714516E1,6.3375483E0,1.1138467E1,1.0801448E0,9.350397E1,5.76605E0,2.1668789E1,3.2045727E1,5.2383757E0,1.0991721E0,7.33219E1,2.0182064E1,4.3524857E0,1.413564E0],"tree_param":{"num_deleted":"0","num_feature":"27","num_nodes":"21","size_leaf_vector":"1"}},{"base_weights":[-7.9782344E-2,-2.3495998E-2,-9.840433E-2,-2.99385E-1,2.3434708E-2,7.1824305E-2,-3.775505E-1,1.6177797E-1,6.99226E-3,-1.02180205E-1,1.856024E-2,1.1014802E-2,-5.281372E-2],"categories":[1],"categories_nodes":[0],"categories_segments":[0],"categories_sizes":[1],"default_left":[1,0,0,0,0,0,0,0,0,0,0,0,0],"id":52,"left_children":[1,3,-1,5,7,-1,9,-1,11,-1,-1,-1,-1],"loss_changes":[3.5209522E0,1.7549713E0,0E0,1.1495314E0,1.4963717E0,0E0,1.18243E0,0E0,1.5123932E0,0E0,0E0,0E0,0E0],"parents":[2147483647,0,0,1,1,3,3,4,4,6,6,8,8],"right_children":[2,4,-1,6,8,-1,10,-1,12,-1,-1,-1,-1],"split_conditions":[NaN,1E0,-9.840433E-2,1.731677E3,4.33E2,7.1824305E-2,2.76E2,1.6177797E-1,3E0,-1.02180205E-1,1.856024E-2,1.1014802E-2,-5.281372E-2],"split_indices":[3,13,0,26,19,0,6,0,23,0,0,0,0],"split_type":[1,0,0,0,0,0,0,0,0,0,0,0,0],"sum_hessian":[1.5124088E2,1.3400156E2,1.7239315E1,1.8698774E1,1.1530279E2,1.6026711E0,1.7096104E1,1.3760018E0,1.1392678E2,1.3252612E1,3.8434906E0,9.7439445E1,1.6487339E1],"tree_param":{"num_deleted":"0","num_feature":"27","num_nodes":"13","size_leaf_vector":"1"}},{"base_weights":[-8.571707E-2,-2.7123272E-2,-9.8578975E-2,5.6805726E-2,-2.450807E-1,-3.415061E-2,2.4810557E-1,-3.021806E-1,4.0525484E-1,-1.9607807E-2,7.3616676E-2,9.3029514E-2,-3.0901362E-3,-7.314218E-2,4.2663816E-2,1.18271284E-1,1.0212502E-2],"categories":[1,2],"categories_nodes":[0,6],"categories_segments":[0,1],"categories_sizes":[1,1],"default_left":[1,1,0,1,1,1,0,0,0,0,0,0,0,0,0,0,0],"id":53,"left_children":[1,3,-1,5,7,9,11,13,15,-1,-1,-1,-1,-1,-1,-1,-1],"loss_changes":[3.4983878E0,2.387156E0,0E0,1.652392E0,1.4688103E0,1.7042019E0,1.755672E0,1.1883273E0,1.9085562E-1,0E0,0E0,0E0,0E0,0E0,0E0,0E0,0E0],"parents":[2147483647,0,0,1,1,3,3,4,4,5,5,6,6,7,7,8,8],"right_children":[2,4,-1,6,8,10,12,14,16,-1,-1,-1,-1,-1,-1,-1,-1],"split_conditions":[NaN,1.42E2,-9.8578975E-2,2E0,3.6E0,2.89E2,NaN,3.09E2,1.88E2,-1.9607807E-2,7.3616676E-2,9.3029514E-2,-3.0901362E-3,-7.314218E-2,4.2663816E-2,1.18271284E-1,1.0212502E-2],"split_indices":[3,9,0,11,11,6,18,6,6,0,0,0,0,0,0,0,0],"split_type":[1,0,0,0,0,0,1,0,0,0,0,0,0,0,0,0,0],"sum_hessian":[1.4619354E2,1.2873491E2,1.745863E1,9.347847E1,3.525644E1,6.3912033E1,2.9566439E1,3.290289E1,2.353549E0,5.5804626E1,8.107406E0,1.579454E1,1.3771898E1,2.9551523E1,3.3513665E0,1.1039268E0,1.2496221E0],"tree_param":{"num_deleted":"0","num_feature":"27","num_nodes":"17","size_leaf_vector":"1"}},{"base_weights":[-3.114189E-1,-3.9488444E-1,2.438841E-2,-1.7530367E-1,-4.4967255E-1,-7.338085E-2,4.4581345E-1,-4.24036E-1,2.8512165E-1,-2.2045459E-1,-5.065246E-1,8.890623E-2,-9.3263745E-2,1.3529429E-3,1.3717431E-1,-9.662692E-2,1.78873E-2,1.942183E-1,-4.2961046E-2,5.4435965E-2,-8.187526E-2,-3.6281165E-2,-1.0432223E-1,-8.5136786E-2,5.293364E-2],"categories":[1,3,0,1,3,0],"categories_nodes":[5,8,11],"categories_segments":[0,2,5],"categories_sizes":[2,3,1],"default_left":[1,0,0,0,0,0,0,0,1,0,0,1,0,0,0,0,0,0,0,0,0,0,0,0,0],"id":54,"left_children":[1,3,5,7,9,11,13,15,17,19,21,23,-1,-1,-1,-1,-1,-1,-1,-1,-1,-1,-1,-1,-1],"loss_changes":[2.6364555E0,8.24913E-1,8.402377E-1,2.026532E0,6.6347027E-1,1.1106647E0,3.9924276E-1,3.8324714E-1,2.415116E0,1.3763945E0,1.3536835E-1,1.261863E0,0E0,0E0,0E0,0E0,0E0,0E0,0E0,0E0,0E0,0E0,0E0,0E0,0E0],"parents":[2147483647,0,0,1,1,2,2,3,3,4,4,5,5,6,6,7,7,8,8,9,9,10,10,11,11],"right_children":[2,4,6,8,10,12,14,16,18,20,22,24,-1,-1,-1,-1,-1,-1,-1,-1,-1,-1,-1,-1,-1],"split_conditions":[2.4E0,2.486E1,3.86E1,1.4319031E4,4.296271E3,NaN,5.3E1,6.9E1,NaN,1.553E3,4.2E1,NaN,-9.3263745E-2,1.3529429E-3,1.3717431E-1,-9.662692E-2,1.78873E-2,1.942183E-1,-4.2961046E-2,5.4435965E-2,-8.187526E-2,-3.6281165E-2,-1.0432223E-1,-8.5136786E-2,5.293364E-2],"split_indices":[11,22,22,26,26,17,1,1,3,19,0,7,0,0,0,0,0,0,0,0,0,0,0,0,0],"split_type":[0,0,0,0,0,1,0,0,1,0,0,1,0,0,0,0,0,0,0,0,0,0,0,0,0],"sum_hessian":[9.272033E1,7.412139E1,1.8598938E1,1.5639761E1,5.848163E1,1.5766933E1,2.8320036E0,1.0205532E1,5.434229E0,1.2591705E1,4.5889923E1,1.1705989E1,4.060945E0,1.3645396E0,1.467464E0,9.205142E0,1.0003906E0,1.8935481E0,3.5406806E0,3.368157E0,9.223548E0,2.6125705E0,4.327735E1,2.6182952E0,9.087693E0],"tree_param":{"num_deleted":"0","num_feature":"27","num_nodes":"25","size_leaf_vector":"1"}},{"base_weights":[1.5298939E-1,3.1378064E-1,-4.7857877E-2,2.2915041E-1,5.3305465E-1,-1.3520502E-1,2.3290285E-1,5.223941E-1,1.319359E-1,5.5281234E-1,1.5474464E-2,-3.1756642E-1,1.732945E-2,-3.1251317E-1,4.048589E-1,1.2129289E-1,-8.6834505E-2,8.708681E-2,1.1522027E-2,1.5210979E-2,1.1429218E-1,-8.764665E-2,5.1889684E-2,2.8792469E-2,-7.67749E-2,2.9629637E-2,-9.141918E-2,1.0117966E-1,-6.8947054E-2],"categories":[0,0,2,1,0,2,3],"categories_nodes":[0,1,5,6,8],"categories_segments":[0,1,2,3,4],"categories_sizes":[1,1,1,1,3],"default_left":[1,1,0,0,1,0,0,0,1,0,0,0,0,0,1,0,0,0,0,0,0,0,0,0,0,0,0,0,0],"id":55,"left_children":[1,3,5,7,9,11,13,15,17,19,-1,21,23,25,27,-1,-1,-1,-1,-1,-1,-1,-1,-1,-1,-1,-1,-1,-1],"loss_changes":[6.379475E0,1.9114323E0,2.201617E0,2.2351089E0,2.251873E-1,1.9005268E0,2.1303043E0,1.8543777E0,1.37433E0,2.0870972E-1,0E0,2.277764E0,1.9881678E0,4.464022E-1,1.4376786E0,0E0,0E0,0E0,0E0,0E0,0E0,0E0,0E0,0E0,0E0,0E0,0E0,0E0,0E0],"parents":[2147483647,0,0,1,1,2,2,3,3,4,4,5,5,6,6,7,7,8,8,9,9,11,11,12,12,13,13,14,14],"right_children":[2,4,6,8,10,12,14,16,18,20,-1,22,24,26,28,-1,-1,-1,-1,-1,-1,-1,-1,-1,-1,-1,-1,-1,-1],"split_conditions":[NaN,NaN,3.5625E1,4.6E1,2E0,NaN,NaN,8.978E3,NaN,1.15E2,1.5474464E-2,3E0,8.17E2,5.3E1,2.2E0,1.2129289E-1,-8.6834505E-2,8.708681E-2,1.1522027E-2,1.5210979E-2,1.1429218E-1,-8.764665E-2,5.1889684E-2,2.8792469E-2,-7.67749E-2,2.9629637E-2,-9.141918E-2,1.0117966E-1,-6.8947054E-2],"split_indices":[4,2,22,1,13,12,14,19,3,9,0,15,0,1,11,0,0,0,0,0,0,0,0,0,0,0,0,0,0],"split_type":[1,1,0,0,0,1,1,0,1,0,0,0,0,0,0,0,0,0,0,0,0,0,0,0,0,0,0,0,0],"sum_hessian":[1.9607573E2,1.0858451E2,8.749123E1,7.9821815E1,2.8762695E1,6.712613E1,2.0365095E1,1.878475E1,6.1037067E1,2.7363123E1,1.3995734E0,3.008104E1,3.7045086E1,4.685635E0,1.567946E1,1.7603611E1,1.1811402E0,1.1051494E1,4.9985573E1,1.221194E0,2.6141928E1,2.5077322E1,5.0037174E0,2.8644983E1,8.4001045E0,1.1134293E0,3.572206E0,1.410352E1,1.5759394E0],"tree_param":{"num_deleted":"0","num_feature":"27","num_nodes":"29","size_leaf_vector":"1"}},{"base_weights":[8.348772E-2,2.8009546E-1,2.9009795E-2,4.2571756E-1,-2.9847518E-1,2.5676742E-1,-4.075907E-2,-2.4988547E-3,5.697817E-1,6.4997464E-2,-4.7026655E-1,1.3301049E-1,6.9762635E-1,1.2115589E-1,-1.7395708E-1,-6.427018E-2,1.569591E-1,2.4012474E-2,1.388052E-1,1.230963E-2,-1.1614332E-1,-6.0455836E-2,5.974088E-2,-6.30337E-2,1.826381E-1,7.271168E-2,-7.328315E-3,-1.8709319E-2,-9.6115306E-2],"categories":[1,4,5,7,2,2,0,0,0,3,3],"categories_nodes":[0,1,3,6,10,13,14],"categories_segments":[0,4,5,6,7,8,10],"categories_sizes":[4,1,1,1,1,2,1],"default_left":[1,1,0,0,0,0,0,1,0,0,0,0,0,1,0,0,0,0,